package main

func Score(input []float64) float64 {
	var var0 float64
	if input[5] <= -0.462526649236679 {
		if input[6] > 0.8107726275920869 {
			if input[2] <= -0.7493774890899657 {
				if input[4] > 2.7732812166213994 {
					var0 = 0.29107758378909454
				} else {
					if input[1] <= -0.9513126611709594 {
						var0 = 0.37426616373020943
					} else {
						var0 = 0.3556575505883751
					}
				}
			} else {
				if input[4] > 0.6615455448627473 {
					var0 = 0.31839643109772736
				} else {
					if input[1] <= -0.7388107180595397 {
						if input[4] <= -0.2374976426362991 {
							var0 = 0.35470087196552613
						} else {
							var0 = 0.34219891626247567
						}
					} else {
						var0 = 0.32414347619423034
					}
				}
			}
		} else {
			if input[6] <= -0.7123442888259887 {
				if input[2] > 0.44205583631992346 {
					var0 = 0.2995216115177716
				} else {
					if input[1] > 0.5362006425857545 {
						if input[4] > 1.4788959026336672 {
							var0 = 0.2889658558454738
						} else {
							if input[1] > 2.023713886737824 {
								var0 = 0.29768502129540847
							} else {
								var0 = 0.3178052423895395
							}
						}
					} else {
						var0 = 0.28995432248796965
					}
				}
			} else {
				if input[4] > 1.5910648703575136 {
					var0 = 0.2949006911833182
				} else {
					if input[2] <= -0.7493774890899657 {
						if input[4] > 1.3188968896865847 {
							var0 = 0.31550588209020897
						} else {
							var0 = 0.3358768253998901
						}
					} else {
						if input[2] > 0.44205583631992346 {
							if input[7] > 0.05087593756616116 {
								var0 = 0.2982159211413768
							} else {
								var0 = 0.31621771902273704
							}
						} else {
							if input[3] <= -0.40319171547889704 {
								var0 = 0.3148401103606099
							} else {
								if input[1] > 0.11119683785364033 {
									if input[2] <= -0.5327532440423964 {
										var0 = 0.33888667678277823
									} else {
										var0 = 0.32614245451474644
									}
								} else {
									if input[6] <= -0.4069241434335708 {
										var0 = 0.2922202937152963
									} else {
										var0 = 0.32487061954490076
									}
								}
							}
						}
					}
				}
			}
		}
	} else {
		if input[2] > 1.0919286012649538 {
			var0 = 0.2851893233442186
		} else {
			if input[0] > 0.8669024854898454 {
				if input[6] > 0.6222088634967805 {
					if input[9] > 2.185497879981995 {
						var0 = 0.3406670392774265
					} else {
						var0 = 0.2867382993057417
					}
				} else {
					if input[7] > 0.812676101922989 {
						var0 = 0.28540477935737185
					} else {
						if input[5] > 1.4325346350669863 {
							var0 = 0.3836870461763571
						} else {
							var0 = 0.2882991690524134
						}
					}
				}
			} else {
				if input[2] <= -1.2909380197525022 {
					var0 = 0.34670685373432636
				} else {
					if input[2] <= -0.5327532440423964 {
						var0 = 0.29892463499221394
					} else {
						var0 = 0.2899096750445631
					}
				}
			}
		}
	}
	var var1 float64
	if input[5] <= -0.462526649236679 {
		if input[6] > 0.8107726275920869 {
			if input[2] <= -0.7493774890899657 {
				if input[4] > 2.7732812166213994 {
					var1 = -0.022927982937753874
				} else {
					if input[1] <= -0.9513126611709594 {
						var1 = 0.051941740143813524
					} else {
						var1 = 0.03519398520014217
					}
				}
			} else {
				if input[4] <= -0.00596432271413505 {
					var1 = 0.030286436487338555
				} else {
					if input[4] > 0.8058834671974183 {
						var1 = -0.0010471900161707177
					} else {
						var1 = 0.016424840498656775
					}
				}
			}
		} else {
			if input[6] <= -0.7123442888259887 {
				if input[2] > 0.5503679513931276 {
					var1 = -0.0167595949366286
				} else {
					if input[1] > 0.5362006425857545 {
						if input[4] > 1.4788959026336672 {
							var1 = -0.02486988775929544
						} else {
							if input[1] > 2.2362158298492436 {
								var1 = -0.020417831324937435
							} else {
								var1 = 0.0006688099716068618
							}
						}
					} else {
						var1 = -0.02395083281939202
					}
				}
			} else {
				if input[4] > 1.3574150800704958 {
					if input[4] > 2.0287345647811894 {
						var1 = -0.025284461203579592
					} else {
						var1 = -0.00943368106128043
					}
				} else {
					if input[2] <= -0.7493774890899657 {
						if input[3] <= -0.15157920867204663 {
							var1 = 0.005172754444886008
						} else {
							if input[2] <= -0.966001659631729 {
								var1 = 0.028820180160700544
							} else {
								if input[1] <= -0.7388107180595397 {
									var1 = -0.01287339653287615
								} else {
									var1 = 0.016710013843959027
								}
							}
						}
					} else {
						if input[2] > 0.44205583631992346 {
							var1 = -0.004531403716011559
						} else {
							if input[1] > 0.11119683785364033 {
								if input[2] <= -0.5327532440423964 {
									var1 = 0.0193545117817427
								} else {
									var1 = 0.008502913233306673
								}
							} else {
								if input[6] <= -0.4069241434335708 {
									var1 = -0.02192076446165458
								} else {
									if input[7] > 1.129089653491974 {
										var1 = -0.006760522340981391
									} else {
										var1 = 0.00777489830804569
									}
								}
							}
						}
					}
				}
			}
		}
	} else {
		if input[2] > 1.0919286012649538 {
			var1 = -0.02822741822176213
		} else {
			if input[0] > 0.8669024854898454 {
				if input[6] > 0.6222088634967805 {
					var1 = -0.025256416952934013
				} else {
					if input[7] > 0.812676101922989 {
						var1 = -0.028033506322571834
					} else {
						if input[5] > 1.4325346350669863 {
							var1 = 0.06042053569726346
						} else {
							var1 = -0.025428556666082264
						}
					}
				}
			} else {
				if input[2] <= -0.966001659631729 {
					var1 = -0.00779064191113755
				} else {
					if input[5] > 0.26190020143985754 {
						var1 = -0.025406791446384726
					} else {
						var1 = -0.016305722895409616
					}
				}
			}
		}
	}
	var var2 float64
	if input[5] <= -0.462526649236679 {
		if input[6] > 0.8107726275920869 {
			if input[2] <= -0.6410653591156005 {
				if input[1] <= -0.9513126611709594 {
					if input[4] > 2.6035466194152836 {
						var2 = -0.024353953138474497
					} else {
						var2 = 0.04605739342608118
					}
				} else {
					if input[3] <= -1.3872865438461301 {
						var2 = 0.0011425024831592464
					} else {
						var2 = 0.032789002731240975
					}
				}
			} else {
				if input[4] <= -0.00596432271413505 {
					var2 = 0.025984886390678405
				} else {
					if input[4] > 0.9205917418003083 {
						var2 = -0.005968054342854974
					} else {
						var2 = 0.012583936422143296
					}
				}
			}
		} else {
			if input[6] <= -0.7123442888259887 {
				if input[2] > 0.44205583631992346 {
					var2 = -0.01383822114743221
				} else {
					if input[1] > 0.5362006425857545 {
						if input[4] > 1.4352983236312868 {
							var2 = -0.021881306055413857
						} else {
							if input[1] > 2.023713886737824 {
								var2 = -0.015995730347855824
							} else {
								var2 = 0.0010830270132965983
							}
						}
					} else {
						var2 = -0.02154383496965843
					}
				}
			} else {
				if input[3] <= -0.6272171139717101 {
					if input[4] > 1.5910648703575136 {
						var2 = -0.01776155923243798
					} else {
						var2 = -0.002592934791863442
					}
				} else {
					if input[2] <= -0.7493774890899657 {
						if input[1] <= -0.9513126611709594 {
							var2 = -0.0055772608873390014
						} else {
							if input[2] <= -0.966001659631729 {
								var2 = 0.022099158588002942
							} else {
								if input[1] <= -0.7388107180595397 {
									var2 = -0.018057919442653655
								} else {
									var2 = 0.015039011029853989
								}
							}
						}
					} else {
						if input[2] > 0.5503679513931276 {
							var2 = -0.005031538602477226
						} else {
							if input[1] > 0.11119683785364033 {
								if input[2] <= -0.5327532440423964 {
									var2 = 0.01740798212373795
								} else {
									var2 = 0.007625236176047119
								}
							} else {
								if input[6] <= -0.4069241434335708 {
									var2 = -0.019707467418009716
								} else {
									if input[7] > 1.0757808089256289 {
										var2 = -0.005148724608959311
									} else {
										var2 = 0.006980102799511201
									}
								}
							}
						}
					}
				}
			}
		}
	} else {
		if input[8] <= -0.49230955541133875 {
			var2 = -0.023960288645066136
		} else {
			if input[0] > 0.8669024854898454 {
				if input[4] <= -0.9608801007270812 {
					var2 = -0.025464635428221256
				} else {
					if input[5] > 1.4325346350669863 {
						var2 = 0.05487144334407157
					} else {
						var2 = -0.016715927384162357
					}
				}
			} else {
				if input[2] <= -1.182625889778137 {
					var2 = 0.009094285013827872
				} else {
					if input[2] <= -0.5327532440423964 {
						var2 = -0.014720972159730226
					} else {
						var2 = -0.022415715610666142
					}
				}
			}
		}
	}
	var var3 float64
	if input[5] <= -0.462526649236679 {
		if input[6] > 0.8107726275920869 {
			if input[2] <= -0.7493774890899657 {
				if input[1] <= -0.7388107180595397 {
					if input[3] <= -1.3872865438461301 {
						var3 = 0.025360108691233174
					} else {
						var3 = 0.04183630927783031
					}
				} else {
					if input[3] <= -0.40319171547889704 {
						var3 = -0.005076994208586699
					} else {
						var3 = 0.025597110130254504
					}
				}
			} else {
				if input[4] > 0.6615455448627473 {
					var3 = 0.0006392877587930558
				} else {
					if input[1] <= -0.7388107180595397 {
						var3 = 0.02324569042449449
					} else {
						var3 = 0.0022633839273306935
					}
				}
			}
		} else {
			if input[6] <= -0.5596342086791991 {
				if input[2] > 0.5503679513931276 {
					var3 = -0.013668920591193474
				} else {
					if input[4] > 1.4788959026336672 {
						var3 = -0.019344165942923677
					} else {
						if input[1] > 0.32369874417781835 {
							if input[1] > 2.2362158298492436 {
								var3 = -0.016881215742391178
							} else {
								if input[2] <= -0.2078168764710426 {
									var3 = 0.004833655406156519
								} else {
									if input[1] > 0.7487025260925294 {
										var3 = 0.00019517447656625537
									} else {
										var3 = -0.02388327173653617
									}
								}
							}
						} else {
							var3 = -0.018353962549080217
						}
					}
				}
			} else {
				if input[3] <= -1.0272286534309385 {
					var3 = -0.015371578300710882
				} else {
					if input[2] <= -0.7493774890899657 {
						if input[4] > 1.0501151680946352 {
							var3 = 0.0029249146761396376
						} else {
							if input[2] <= -0.966001659631729 {
								var3 = 0.02369524411308661
							} else {
								if input[1] <= -0.7388107180595397 {
									var3 = -0.010376681032129879
								} else {
									var3 = 0.0134865750650198
								}
							}
						}
					} else {
						if input[7] > 0.05087593756616116 {
							if input[0] > 0.000000000000000000000000000000000010000000180025095 {
								var3 = -0.0120835896685332
							} else {
								var3 = 0.006874129322013464
							}
						} else {
							var3 = 0.006134976247584852
						}
					}
				}
			}
		}
	} else {
		if input[2] > 1.0919286012649538 {
			var3 = -0.023021047079488675
		} else {
			if input[0] > 0.8669024854898454 {
				if input[6] > 0.6222088634967805 {
					if input[9] > 2.185497879981995 {
						var3 = 0.026483704378971684
					} else {
						var3 = -0.021978235193268116
					}
				} else {
					if input[7] > 0.812676101922989 {
						var3 = -0.022869718713149977
					} else {
						if input[5] > 1.4325346350669863 {
							var3 = 0.04951057627596663
						} else {
							var3 = -0.020603018370615383
						}
					}
				}
			} else {
				if input[2] <= -1.2909380197525022 {
					var3 = 0.027007996047561496
				} else {
					if input[5] > 0.5993871986865998 {
						var3 = -0.0203124887367337
					} else {
						var3 = -0.013110121014627375
					}
				}
			}
		}
	}
	var var4 float64
	if input[5] <= -0.462526649236679 {
		if input[6] > 0.8107726275920869 {
			if input[2] <= -0.6410653591156005 {
				if input[1] <= -0.9513126611709594 {
					if input[4] > 2.6035466194152836 {
						var4 = -0.024454568759087594
					} else {
						var4 = 0.03765225908432925
					}
				} else {
					if input[3] <= -1.3872865438461301 {
						var4 = 0.0005423891738829366
					} else {
						var4 = 0.026266296743024938
					}
				}
			} else {
				if input[4] <= -0.00596432271413505 {
					var4 = 0.02132165777836974
				} else {
					var4 = 0.0068984263005258855
				}
			}
		} else {
			if input[6] <= -0.7123442888259887 {
				if input[2] > 0.5503679513931276 {
					var4 = -0.012332918901701233
				} else {
					if input[1] > 0.5362006425857545 {
						if input[4] > 1.230008363723755 {
							var4 = -0.013261123755777047
						} else {
							if input[1] > 2.2362158298492436 {
								var4 = -0.015053214029745854
							} else {
								var4 = 0.0009800004434337374
							}
						}
					} else {
						var4 = -0.017433922634028043
					}
				}
			} else {
				if input[3] <= -0.6272171139717101 {
					if input[4] > 1.8018573522567751 {
						var4 = -0.016374512209172198
					} else {
						var4 = -0.0034657941886742194
					}
				} else {
					if input[2] <= -0.7493774890899657 {
						var4 = 0.012834443845118249
					} else {
						if input[2] > 0.5503679513931276 {
							var4 = -0.004473716147565254
						} else {
							if input[1] > 0.11119683785364033 {
								if input[2] <= -0.6410653591156005 {
									var4 = 0.019126742392439736
								} else {
									var4 = 0.006865736891159423
								}
							} else {
								if input[6] <= -0.4069241434335708 {
									var4 = -0.017075321249134797
								} else {
									var4 = 0.0049579434786465315
								}
							}
						}
					}
				}
			}
		}
	} else {
		if input[2] > 1.0919286012649538 {
			var4 = -0.020718941453656204
		} else {
			if input[0] > 0.8669024854898454 {
				if input[6] > 0.6222088634967805 {
					if input[9] > 2.185497879981995 {
						if input[4] <= -0.9608801007270812 {
							var4 = -0.029213872017004552
						} else {
							var4 = 0.055664855883671684
						}
					} else {
						var4 = -0.019780412263877167
					}
				} else {
					if input[7] > 0.812676101922989 {
						var4 = -0.020582746584983533
					} else {
						if input[5] > 1.4325346350669863 {
							if input[5] > 1.7133963704109194 {
								var4 = -0.0472329752445221
							} else {
								var4 = 0.045600250455257306
							}
						} else {
							var4 = -0.018542716819412854
						}
					}
				}
			} else {
				if input[2] <= -1.182625889778137 {
					var4 = 0.008222496282737867
				} else {
					if input[5] > 1.4325346350669863 {
						var4 = -0.020585624854872697
					} else {
						if input[2] <= -0.3161289989948272 {
							var4 = -0.009603545254101035
						} else {
							var4 = -0.016827775323809368
						}
					}
				}
			}
		}
	}
	var var5 float64
	if input[5] <= -0.462526649236679 {
		if input[6] > 0.504024624824524 {
			if input[2] <= -1.182625889778137 {
				var5 = 0.036836082767284915
			} else {
				if input[4] > 0.8160420656204225 {
					if input[4] > 1.8018573522567751 {
						var5 = -0.012381219386154552
					} else {
						if input[2] <= -0.5327532440423964 {
							var5 = 0.008919697005428539
						} else {
							var5 = -0.003973613778098685
						}
					}
				} else {
					if input[2] <= -0.5327532440423964 {
						if input[1] <= -0.9513126611709594 {
							if input[6] > 0.8107726275920869 {
								var5 = 0.031161525617991827
							} else {
								var5 = -0.011379276111092367
							}
						} else {
							var5 = 0.02056058724759684
						}
					} else {
						if input[3] > 0.5652071833610536 {
							var5 = 0.01981643851339833
						} else {
							if input[1] <= -0.7388107180595397 {
								var5 = 0.011215366632558621
							} else {
								var5 = -0.0034267256937243725
							}
						}
					}
				}
			}
		} else {
			if input[4] > 1.5910648703575136 {
				var5 = -0.015771996136436393
			} else {
				if input[2] > 0.3337437212467194 {
					if input[1] > 2.8737214803695683 {
						var5 = -0.015259679137392247
					} else {
						if input[7] > 0.05087593756616116 {
							var5 = -0.012086356372331875
						} else {
							var5 = -0.0028807934875843912
						}
					}
				} else {
					if input[6] <= -0.6831301748752593 {
						if input[1] > 0.5362006425857545 {
							if input[1] > 1.8112120032310488 {
								var5 = -0.011899685074169802
							} else {
								var5 = 0.001137596579412335
							}
						} else {
							var5 = -0.015586490562525344
						}
					} else {
						if input[3] <= -0.15157920867204663 {
							var5 = 0.0007631745815250002
						} else {
							if input[6] <= -0.04174797423183917 {
								if input[1] <= -0.31380696594715113 {
									var5 = -0.0201456248220251
								} else {
									var5 = 0.006221626509446108
								}
							} else {
								if input[1] <= -0.526308849453926 {
									var5 = 0.005422056060477367
								} else {
									var5 = 0.01223147530279462
								}
							}
						}
					}
				}
			}
		}
	} else {
		if input[2] > 1.0919286012649538 {
			var5 = -0.01864704814283318
		} else {
			if input[0] > 0.8669024854898454 {
				if input[6] > 0.6222088634967805 {
					var5 = -0.01652700901078046
				} else {
					if input[7] > 0.812676101922989 {
						var5 = -0.0185244715485736
					} else {
						if input[5] > 1.4325346350669863 {
							if input[4] <= -0.9608801007270812 {
								var5 = -0.04255966520309448
							} else {
								var5 = 0.04104079089467488
							}
						} else {
							var5 = -0.016688445899762264
						}
					}
				}
			} else {
				if input[2] <= -1.2909380197525022 {
					var5 = 0.023484945447001627
				} else {
					if input[5] > 0.5993871986865998 {
						var5 = -0.016593380056707335
					} else {
						var5 = -0.010466637948632842
					}
				}
			}
		}
	}
	var var6 float64
	if input[5] <= -0.462526649236679 {
		if input[6] > 0.504024624824524 {
			if input[2] <= -1.182625889778137 {
				var6 = 0.03315247573210105
			} else {
				if input[4] > 0.8160420656204225 {
					if input[4] > 1.8018573522567751 {
						var6 = -0.011143097423056726
					} else {
						var6 = 0.0038123701486546635
					}
				} else {
					if input[2] <= -0.5327532440423964 {
						if input[1] <= -0.9513126611709594 {
							if input[6] > 0.8107726275920869 {
								var6 = 0.028045373478003705
							} else {
								var6 = -0.010241348097022152
							}
						} else {
							var6 = 0.01850452732834356
						}
					} else {
						if input[1] <= -0.7388107180595397 {
							if input[3] > 0.5813788771629335 {
								var6 = 0.020672760832499953
							} else {
								var6 = 0.010086654821778882
							}
						} else {
							var6 = 0.0013562450895043844
						}
					}
				}
			}
		} else {
			if input[2] <= -0.3161289989948272 {
				if input[4] > 1.5910648703575136 {
					var6 = -0.012862977077241612
				} else {
					if input[1] <= -0.7388107180595397 {
						var6 = -0.012252864192446901
					} else {
						if input[2] <= -0.7493774890899657 {
							if input[4] > 1.3188968896865847 {
								var6 = 0.000040320482603303945
							} else {
								var6 = 0.009895044644315284
							}
						} else {
							if input[1] <= -0.31380696594715113 {
								var6 = -0.02067903664088271
							} else {
								var6 = 0.004908195944153806
							}
						}
					}
				}
			} else {
				if input[2] > 0.6586800813674928 {
					var6 = -0.009172295863731096
				} else {
					if input[3] <= -0.941138207912445 {
						var6 = -0.01717362794219231
					} else {
						if input[1] > 2.4487177133560185 {
							var6 = -0.015129795747050824
						} else {
							var6 = 0.00003310749256244948
						}
					}
				}
			}
		}
	} else {
		if input[2] > 1.0919286012649538 {
			var6 = -0.016782343655840175
		} else {
			if input[0] > 0.8669024854898454 {
				if input[6] > 0.6222088634967805 {
					if input[9] > 2.185497879981995 {
						if input[5] > 0.6246798336505891 {
							var6 = -0.01687064845951236
						} else {
							var6 = 0.058718724630095746
						}
					} else {
						var6 = -0.016149669834152513
					}
				} else {
					if input[7] > 0.812676101922989 {
						var6 = -0.01667202475406371
					} else {
						if input[5] > 1.4325346350669863 {
							if input[5] > 1.7133963704109194 {
								var6 = -0.03858811211585999
							} else {
								var6 = 0.036939937718330866
							}
						} else {
							var6 = -0.015019600954996486
						}
					}
				}
			} else {
				if input[2] <= -0.966001659631729 {
					if input[3] <= -1.3872865438461301 {
						var6 = -0.011087899236715264
					} else {
						var6 = 0.00428398729160132
					}
				} else {
					if input[5] > 0.26190020143985754 {
						var6 = -0.015589995150499667
					} else {
						var6 = -0.008838091208411386
					}
				}
			}
		}
	}
	var var7 float64
	if input[5] <= -0.462526649236679 {
		if input[6] > 0.504024624824524 {
			if input[2] <= -1.182625889778137 {
				var7 = 0.02983722781440644
			} else {
				if input[4] > 0.8160420656204225 {
					if input[3] <= -1.9894443750381468 {
						var7 = -0.018143696981694615
					} else {
						var7 = 0.0023387444832330857
					}
				} else {
					if input[2] <= -0.42444112896919245 {
						if input[1] <= -0.9513126611709594 {
							if input[6] > 0.8107726275920869 {
								var7 = 0.02445266933775967
							} else {
								var7 = -0.009217212989296713
							}
						} else {
							var7 = 0.01620538108250688
						}
					} else {
						if input[3] > 1.1393022537231448 {
							var7 = 0.024282978808655403
						} else {
							if input[1] <= -0.7388107180595397 {
								var7 = 0.010350129662677366
							} else {
								var7 = -0.0012201470835589432
							}
						}
					}
				}
			}
		} else {
			if input[6] <= -0.7123442888259887 {
				if input[1] > 0.5362006425857545 {
					if input[1] > 2.4487177133560185 {
						var7 = -0.010450051289122061
					} else {
						if input[3] <= -0.24385298043489453 {
							var7 = -0.009909684136009858
						} else {
							if input[9] > 0.000000000000000000000000000000000010000000180025095 {
								var7 = -0.003264109505111284
							} else {
								var7 = 0.002285257765839875
							}
						}
					}
				} else {
					var7 = -0.01389962063166336
				}
			} else {
				if input[3] <= -0.40319171547889704 {
					if input[4] > 1.8018573522567751 {
						var7 = -0.014409938029940776
					} else {
						var7 = -0.002306587061749838
					}
				} else {
					if input[2] > 0.44205583631992346 {
						var7 = -0.0026466429261358185
					} else {
						if input[2] <= -0.7493774890899657 {
							if input[1] <= -0.7388107180595397 {
								var7 = -0.009855558978659766
							} else {
								var7 = 0.00891851349997761
							}
						} else {
							if input[1] > 0.000000000000000000000000000000000010000000180025095 {
								if input[2] <= -0.6410653591156005 {
									var7 = 0.01623250721445815
								} else {
									var7 = 0.004973602403339013
								}
							} else {
								if input[6] <= -0.24491861462593076 {
									var7 = -0.016308109562706834
								} else {
									var7 = 0.003068388830127533
								}
							}
						}
					}
				}
			}
		}
	} else {
		if input[2] > 1.0919286012649538 {
			var7 = -0.015104109317079801
		} else {
			if input[0] > 0.8669024854898454 {
				if input[6] > 0.6222088634967805 {
					var7 = -0.01338687713901835
				} else {
					if input[7] > 0.812676101922989 {
						var7 = -0.015004823057521583
					} else {
						if input[5] > 1.4325346350669863 {
							var7 = 0.032483888531746885
						} else {
							var7 = -0.013517641169684276
						}
					}
				}
			} else {
				if input[2] <= -0.5327532440423964 {
					if input[3] <= -1.5504304170608518 {
						var7 = -0.014575270836574583
					} else {
						var7 = -0.003134985730114467
					}
				} else {
					var7 = -0.013257587334534053
				}
			}
		}
	}
	var var8 float64
	if input[5] <= -0.462526649236679 {
		if input[6] > 0.8107726275920869 {
			if input[2] <= -0.7493774890899657 {
				if input[4] > 2.7732812166213994 {
					var8 = -0.015464385456583475
				} else {
					if input[1] <= -0.9513126611709594 {
						var8 = 0.026009879428066263
					} else {
						if input[6] > 2.8119381666183476 {
							var8 = -0.026333757077946385
						} else {
							var8 = 0.017352547164041377
						}
					}
				}
			} else {
				if input[4] <= -0.00596432271413505 {
					if input[1] <= -0.526308849453926 {
						var8 = 0.016535652763685207
					} else {
						var8 = -0.002555620764078719
					}
				} else {
					var8 = 0.004316639589881427
				}
			}
		} else {
			if input[6] <= -0.4069241434335708 {
				if input[2] > 0.3337437212467194 {
					var8 = -0.007167135595392469
				} else {
					if input[1] > 0.11119683785364033 {
						if input[4] > 1.230008363723755 {
							var8 = -0.008973687852475805
						} else {
							if input[2] <= -0.09950475580990313 {
								var8 = 0.0034422084882103003
							} else {
								if input[1] > 0.9612043797969819 {
									if input[1] > 1.8112120032310488 {
										var8 = -0.010552446679635482
									} else {
										var8 = 0.001320134407000891
									}
								} else {
									var8 = -0.02322430478040047
								}
							}
						}
					} else {
						var8 = -0.013064018132746165
					}
				}
			} else {
				if input[3] <= -1.0272286534309385 {
					var8 = -0.008887028902664119
				} else {
					if input[3] > 0.11477816477417947 {
						if input[6] > 0.504024624824524 {
							var8 = 0.014145402154774245
						} else {
							var8 = 0.005276566748953311
						}
					} else {
						if input[2] <= -0.6410653591156005 {
							var8 = 0.004169976835862998
						} else {
							var8 = -0.0021910187128751503
						}
					}
				}
			}
		}
	} else {
		if input[2] > 1.0919286012649538 {
			var8 = -0.013593697915515946
		} else {
			if input[0] > 0.8669024854898454 {
				if input[6] > 0.6222088634967805 {
					if input[9] > 2.185497879981995 {
						var8 = 0.022132738106525864
					} else {
						var8 = -0.01319601530648833
					}
				} else {
					if input[7] > 0.812676101922989 {
						var8 = -0.013504340385378389
					} else {
						if input[5] > 1.4325346350669863 {
							var8 = 0.02923550094323308
						} else {
							var8 = -0.012165876695898926
						}
					}
				}
			} else {
				if input[2] <= -1.2909380197525022 {
					var8 = 0.021560489367600064
				} else {
					if input[3] <= -0.8403029441833495 {
						var8 = -0.013303868568887081
					} else {
						if input[2] <= -0.2078168764710426 {
							var8 = -0.004112346060790375
						} else {
							if input[8] <= -1.1649495363235471 {
								if input[8] <= -1.1930513978004453 {
									var8 = -0.007768602510716052
								} else {
									var8 = 0.052856193802186424
								}
							} else {
								var8 = -0.012299794906316476
							}
						}
					}
				}
			}
		}
	}
	var var9 float64
	if input[5] <= -0.462526649236679 {
		if input[6] > 0.504024624824524 {
			if input[2] <= -1.182625889778137 {
				var9 = 0.024541557749083273
			} else {
				if input[4] > 0.16884960979223254 {
					if input[4] > 1.8018573522567751 {
						var9 = -0.008605008473087162
					} else {
						if input[2] <= -0.5327532440423964 {
							if input[1] <= -0.9513126611709594 {
								var9 = 0.015855107958259416
							} else {
								var9 = 0.0048528924107385666
							}
						} else {
							var9 = 0.0018362214677935433
						}
					}
				} else {
					if input[7] > 0.25035409629344946 {
						var9 = -0.002170362211877782
					} else {
						if input[1] <= -0.526308849453926 {
							if input[2] <= -0.09950475580990313 {
								var9 = 0.018088835999455467
							} else {
								var9 = 0.008569840808872988
							}
						} else {
							if input[6] > 0.5770598351955415 {
								var9 = -0.0016793433093462203
							} else {
								var9 = 0.01292542875845195
							}
						}
					}
				}
			}
		} else {
			if input[4] > 1.5910648703575136 {
				var9 = -0.010882418746309408
			} else {
				if input[2] > 0.3337437212467194 {
					if input[1] > 2.8737214803695683 {
						var9 = -0.01105476218335172
					} else {
						if input[7] > 0.05087593756616116 {
							if input[1] > 1.8112120032310488 {
								var9 = 0.002741388200820609
							} else {
								var9 = -0.014038870617418965
							}
						} else {
							var9 = -0.0014904722848801243
						}
					}
				} else {
					if input[6] <= -0.5596342086791991 {
						if input[1] > 0.32369874417781835 {
							if input[1] > 1.8112120032310488 {
								var9 = -0.009643567979394627
							} else {
								var9 = 0.0012250120803002377
							}
						} else {
							var9 = -0.011743469605791755
						}
					} else {
						if input[1] > 0.000000000000000000000000000000000010000000180025095 {
							if input[2] <= -0.6410653591156005 {
								var9 = 0.013347367107720477
							} else {
								var9 = 0.004586784243262987
							}
						} else {
							if input[6] <= -0.24491861462593076 {
								var9 = -0.016480344321695067
							} else {
								var9 = 0.003517076226100853
							}
						}
					}
				}
			}
		}
	} else {
		if input[4] <= -0.9608801007270812 {
			if input[2] <= -1.0743137598037718 {
				var9 = 0.00645553752211696
			} else {
				var9 = -0.01228724535413638
			}
		} else {
			if input[4] <= -0.8055370450019835 {
				if input[6] > 0.40044730901718145 {
					if input[2] > 0.8753043413162233 {
						if input[5] > 1.4325346350669863 {
							var9 = 0.026318744060170554
						} else {
							var9 = -0.012320386413313927
						}
					} else {
						var9 = -0.005200548909801015
					}
				} else {
					var9 = -0.012118819616319523
				}
			} else {
				if input[6] > 1.7230492830276491 {
					if input[9] > 2.185497879981995 {
						var9 = 0.05405414211253326
					} else {
						var9 = -0.0013950039678944936
					}
				} else {
					var9 = -0.009677232254941525
				}
			}
		}
	}
	var var10 float64
	if input[5] <= -0.462526649236679 {
		if input[6] > 0.8107726275920869 {
			if input[2] <= -0.7493774890899657 {
				if input[1] <= -0.9513126611709594 {
					var10 = 0.02104879948078986
				} else {
					if input[6] > 2.8119381666183476 {
						var10 = -0.02474226110121783
					} else {
						var10 = 0.01310548985858521
					}
				}
			} else {
				if input[3] <= -0.540175437927246 {
					var10 = -0.0032910693441692805
				} else {
					if input[1] <= -0.526308849453926 {
						if input[2] > 0.44205583631992346 {
							var10 = -0.011115072096289383
						} else {
							var10 = 0.012130053543376845
						}
					} else {
						var10 = -0.004939130349801137
					}
				}
			}
		} else {
			if input[6] <= -0.5596342086791991 {
				if input[1] > 0.32369874417781835 {
					if input[1] > 2.6612195968627934 {
						var10 = -0.009075603940543506
					} else {
						if input[3] <= -0.24385298043489453 {
							var10 = -0.007744168657478493
						} else {
							if input[2] <= -0.09950475580990313 {
								var10 = 0.002860290492380728
							} else {
								if input[1] > 0.9612043797969819 {
									var10 = -0.00044351665658343516
								} else {
									var10 = -0.016920354067307717
								}
							}
						}
					}
				} else {
					var10 = -0.010478480582568735
				}
			} else {
				if input[3] <= -0.40319171547889704 {
					if input[4] > 2.0287345647811894 {
						var10 = -0.011227708640074212
					} else {
						var10 = -0.0014829099755838265
					}
				} else {
					if input[6] <= -0.04174797423183917 {
						if input[1] <= -0.31380696594715113 {
							if input[2] <= -0.5327532440423964 {
								var10 = -0.01877727755914918
							} else {
								var10 = 0.0012188716692373286
							}
						} else {
							if input[0] > 0.000000000000000000000000000000000010000000180025095 {
								var10 = -0.004643416378535789
							} else {
								var10 = 0.004285775391298247
							}
						}
					} else {
						if input[3] > 1.1668891906738283 {
							var10 = 0.012694025747445681
						} else {
							if input[7] > 0.22627914696931842 {
								var10 = -0.003671647158519524
							} else {
								var10 = 0.00626749682509864
							}
						}
					}
				}
			}
		}
	} else {
		if input[3] <= -1.0376926660537718 {
			if input[2] <= -1.2909380197525022 {
				var10 = 0.017114660359811094
			} else {
				var10 = -0.011216169309619089
			}
		} else {
			if input[3] <= -0.9649200439453124 {
				if input[6] > 0.40044730901718145 {
					if input[4] <= -0.9608801007270812 {
						var10 = -0.01269984197416909
					} else {
						if input[5] > 1.4325346350669863 {
							var10 = 0.0245223078276426
						} else {
							var10 = -0.007932334942585332
						}
					}
				} else {
					var10 = -0.010789917001661882
				}
			} else {
				if input[2] <= -0.3161289989948272 {
					var10 = -0.0020957663889187967
				} else {
					if input[5] > 0.08749415352940561 {
						var10 = -0.011175368292517023
					} else {
						var10 = -0.005298456076085936
					}
				}
			}
		}
	}
	var var11 float64
	if input[5] <= -0.462526649236679 {
		if input[6] > 0.504024624824524 {
			if input[2] <= -1.182625889778137 {
				var11 = 0.020247505151548634
			} else {
				if input[4] > 0.16884960979223254 {
					if input[3] <= -1.8752912282943723 {
						var11 = -0.014257833861323246
					} else {
						if input[9] > 0.000000000000000000000000000000000010000000180025095 {
							var11 = -0.002306270560744514
						} else {
							if input[6] > 0.8107726275920869 {
								if input[1] <= -0.526308849453926 {
									var11 = 0.009361886628864651
								} else {
									var11 = -0.010817849370714738
								}
							} else {
								var11 = 0.0008489448991631741
							}
						}
					}
				} else {
					if input[7] > 0.25035409629344946 {
						var11 = -0.0022585423122123112
					} else {
						if input[2] > 0.9836164712905885 {
							var11 = -0.02921585108964674
						} else {
							if input[1] <= -0.526308849453926 {
								var11 = 0.014104006782384751
							} else {
								var11 = 0.007086397874294651
							}
						}
					}
				}
			}
		} else {
			if input[6] <= -0.8052981793880462 {
				if input[1] > 0.7487025260925294 {
					if input[1] > 2.6612195968627934 {
						var11 = -0.008168044194623343
					} else {
						if input[3] <= -0.941138207912445 {
							var11 = -0.013731160921504698
						} else {
							var11 = -0.000544754171430094
						}
					}
				} else {
					var11 = -0.012985893213650682
				}
			} else {
				if input[3] <= -0.1667995974421501 {
					if input[4] > 1.8018573522567751 {
						var11 = -0.010425890871853222
					} else {
						var11 = -0.001460402796334463
					}
				} else {
					if input[6] <= -0.09884813800454138 {
						if input[1] > 0.000000000000000000000000000000000010000000180025095 {
							if input[0] > 0.000000000000000000000000000000000010000000180025095 {
								var11 = -0.004317236146361558
							} else {
								var11 = 0.004152088642378582
							}
						} else {
							if input[6] <= -0.3458400666713714 {
								if input[2] <= -0.42444112896919245 {
									var11 = -0.013897558318135784
								} else {
									var11 = -0.0016226004868692872
								}
							} else {
								if input[3] > 1.9535944461822512 {
									var11 = -0.01730859028881994
								} else {
									var11 = 0.0013595225679205588
								}
							}
						}
					} else {
						var11 = 0.005136900371370819
					}
				}
			}
		}
	} else {
		if input[3] <= -1.0376926660537718 {
			if input[2] <= -1.2909380197525022 {
				var11 = 0.015403195114239402
			} else {
				var11 = -0.010094552316825236
			}
		} else {
			if input[3] <= -0.9649200439453124 {
				if input[6] > 0.40044730901718145 {
					if input[8] <= -0.7099178433418273 {
						var11 = -0.009993545797908253
					} else {
						if input[4] <= -0.9608801007270812 {
							var11 = -0.011929373684767132
						} else {
							var11 = 0.02159785826647409
						}
					}
				} else {
					var11 = -0.009710925272562855
				}
			} else {
				if input[2] <= -0.2078168764710426 {
					var11 = -0.0023853623502839176
				} else {
					var11 = -0.009041133984005823
				}
			}
		}
	}
	var var12 float64
	if input[5] <= -0.462526649236679 {
		if input[6] > 0.504024624824524 {
			if input[2] <= -1.182625889778137 {
				var12 = 0.018222754187900182
			} else {
				if input[4] > 0.722074329853058 {
					if input[4] > 2.0287345647811894 {
						var12 = -0.014917970342295512
					} else {
						var12 = 0.000949991701441394
					}
				} else {
					if input[2] <= -0.42444112896919245 {
						var12 = 0.01188906264292906
					} else {
						if input[3] > 1.1393022537231448 {
							var12 = 0.01685433612208985
						} else {
							if input[2] > 0.9836164712905885 {
								var12 = -0.03057853553480315
							} else {
								var12 = 0.004672206045354294
							}
						}
					}
				}
			}
		} else {
			if input[6] <= -0.8052981793880462 {
				if input[1] > 0.7487025260925294 {
					if input[1] > 2.4487177133560185 {
						var12 = -0.006644379689747762
					} else {
						var12 = -0.0006494780619647131
					}
				} else {
					var12 = -0.011687303591151159
				}
			} else {
				if input[4] > 1.230008363723755 {
					var12 = -0.004179001736647771
				} else {
					if input[7] > 0.05087593756616116 {
						if input[0] > 0.000000000000000000000000000000000010000000180025095 {
							if input[3] > 1.0950679183006289 {
								var12 = 0.017550489992167042
							} else {
								var12 = -0.012021637981585613
							}
						} else {
							var12 = 0.0032145550230505736
						}
					} else {
						if input[9] > 2.185497879981995 {
							var12 = -0.023314871108052374
						} else {
							if input[6] <= -0.04174797423183917 {
								if input[1] <= -0.31380696594715113 {
									if input[2] <= -0.5327532440423964 {
										var12 = -0.015969669033282247
									} else {
										var12 = 0.0024897711518860888
									}
								} else {
									var12 = 0.0027815933067715823
								}
							} else {
								var12 = 0.004965307850887151
							}
						}
					}
				}
			}
		}
	} else {
		if input[5] > 1.6446909308433535 {
			var12 = -0.009405024686928679
		} else {
			if input[5] > 1.6110931634902956 {
				if input[4] <= -0.9608801007270812 {
					var12 = -0.0068252360303996
				} else {
					if input[0] > 0.8669024854898454 {
						var12 = 0.019959828282258788
					} else {
						var12 = -0.006207758258536177
					}
				}
			} else {
				if input[6] > 0.504024624824524 {
					if input[6] > 0.5398781895637513 {
						if input[9] > 2.185497879981995 {
							if input[5] > 0.6246798336505891 {
								var12 = -0.002336913909091324
							} else {
								var12 = 0.051503861689370524
							}
						} else {
							if input[2] <= -0.7493774890899657 {
								var12 = 0.0033473917833100582
							} else {
								var12 = -0.008177696404028807
							}
						}
					} else {
						if input[5] > 1.4325346350669863 {
							var12 = 0.018709460059132602
						} else {
							var12 = -0.004171423928009709
						}
					}
				} else {
					if input[5] > 0.17016714066267016 {
						var12 = -0.008739365239874126
					} else {
						var12 = -0.004025369545799277
					}
				}
			}
		}
	}
	var var13 float64
	if input[5] <= -0.462526649236679 {
		if input[6] > 0.8107726275920869 {
			if input[2] <= -0.6410653591156005 {
				if input[1] <= -0.9513126611709594 {
					var13 = 0.016030015980545896
				} else {
					if input[1] <= -0.526308849453926 {
						if input[6] > 2.8119381666183476 {
							var13 = -0.024016624338486614
						} else {
							var13 = 0.009458315118327258
						}
					} else {
						var13 = -0.026219896405935292
					}
				}
			} else {
				if input[3] <= -0.540175437927246 {
					var13 = -0.0041821148054558815
				} else {
					if input[1] <= -0.526308849453926 {
						if input[2] > 0.8753043413162233 {
							var13 = -0.03240601977816335
						} else {
							var13 = 0.008001059176953464
						}
					} else {
						var13 = -0.003988829037627659
					}
				}
			}
		} else {
			if input[6] <= -0.4069241434335708 {
				if input[1] > 0.11119683785364033 {
					if input[3] <= -0.941138207912445 {
						var13 = -0.011299526802669378
					} else {
						if input[2] > 0.22543159872293475 {
							if input[1] > 1.598710119724274 {
								if input[1] > 2.023713886737824 {
									if input[7] > 0.829872488975525 {
										var13 = 0.0039003011838874627
									} else {
										var13 = -0.006127667912370228
									}
								} else {
									if input[6] <= -1.2408538460731504 {
										var13 = -0.02064138038094933
									} else {
										var13 = 0.00411995056011374
									}
								}
							} else {
								if input[6] <= -1.004485249519348 {
									var13 = -0.02157355328680764
								} else {
									var13 = -0.004838899816812401
								}
							}
						} else {
							if input[1] > 1.598710119724274 {
								var13 = -0.008573102472644104
							} else {
								if input[8] > 0.6198701858520509 {
									var13 = -0.002681594387966552
								} else {
									if input[9] > 0.000000000000000000000000000000000010000000180025095 {
										var13 = -0.0006086085528471121
									} else {
										var13 = 0.003503310064638942
									}
								}
							}
						}
					}
				} else {
					var13 = -0.007938392031700804
				}
			} else {
				if input[3] > 0.11477816477417947 {
					if input[6] > 0.504024624824524 {
						var13 = 0.00853723934999799
					} else {
						var13 = 0.003418647258408502
					}
				} else {
					if input[3] <= -1.0272286534309385 {
						var13 = -0.005647852030599724
					} else {
						var13 = 0.0008458022725090402
					}
				}
			}
		}
	} else {
		if input[3] <= -1.0376926660537718 {
			var13 = -0.008090877804908156
		} else {
			if input[3] <= -0.9649200439453124 {
				if input[6] > 0.40044730901718145 {
					if input[4] <= -0.9608801007270812 {
						var13 = -0.009478271700830081
					} else {
						if input[5] > 1.4325346350669863 {
							var13 = 0.017998292829115935
						} else {
							var13 = -0.0063391821553646505
						}
					}
				} else {
					var13 = -0.007925305622714146
				}
			} else {
				if input[2] <= -0.3161289989948272 {
					var13 = -0.0010881507459264508
				} else {
					var13 = -0.007250871446449052
				}
			}
		}
	}
	var var14 float64
	if input[5] <= -0.462526649236679 {
		if input[6] > 0.8107726275920869 {
			if input[2] <= -0.6410653591156005 {
				if input[1] <= -0.9513126611709594 {
					var14 = 0.014427014644514846
				} else {
					if input[1] <= -0.526308849453926 {
						if input[4] > 1.7197413444519045 {
							var14 = -0.004770476265109225
						} else {
							if input[6] > 2.8119381666183476 {
								var14 = -0.02228487156904661
							} else {
								var14 = 0.01004619013480966
							}
						}
					} else {
						var14 = -0.02359790724515915
					}
				}
			} else {
				if input[4] > 0.6615455448627473 {
					var14 = -0.0029278497124880206
				} else {
					if input[4] <= -1.2783389687538145 {
						var14 = 0.02306488927340869
					} else {
						if input[1] <= -0.526308849453926 {
							if input[2] > 0.44205583631992346 {
								var14 = -0.010413502898726446
							} else {
								var14 = 0.0071963047978305635
							}
						} else {
							var14 = -0.004912606086916553
						}
					}
				}
			}
		} else {
			if input[6] <= -0.4069241434335708 {
				if input[3] <= -0.24385298043489453 {
					var14 = -0.006044840163325963
				} else {
					if input[9] > 0.000000000000000000000000000000000010000000180025095 {
						if input[2] > 0.000000000000000000000000000000000010000000180025095 {
							var14 = -0.005302315244839435
						} else {
							var14 = -0.0006544113928931809
						}
					} else {
						if input[1] > 0.11119683785364033 {
							var14 = 0.0013710551598713745
						} else {
							var14 = -0.006693072865779574
						}
					}
				}
			} else {
				if input[3] <= -0.6272171139717101 {
					var14 = -0.00307224271652569
				} else {
					if input[2] <= -0.7493774890899657 {
						if input[1] <= -0.526308849453926 {
							if input[2] <= -0.8576895892620086 {
								if input[1] <= -1.163814604282379 {
									var14 = -0.016225832779156537
								} else {
									var14 = 0.003892929709375826
								}
							} else {
								var14 = -0.015560249616573383
							}
						} else {
							var14 = 0.0069435857496082005
						}
					} else {
						if input[7] > 0.05087593756616116 {
							if input[0] > 0.000000000000000000000000000000000010000000180025095 {
								var14 = -0.008332951073792573
							} else {
								var14 = 0.004407058185950885
							}
						} else {
							var14 = 0.0026359085860203834
						}
					}
				}
			}
		}
	} else {
		if input[2] > 1.0919286012649538 {
			var14 = -0.007397088663286991
		} else {
			if input[0] > 0.8669024854898454 {
				if input[6] > 0.6222088634967805 {
					var14 = -0.006496108876601192
				} else {
					if input[4] <= -0.9608801007270812 {
						var14 = -0.008510795663828138
					} else {
						if input[5] > 1.4325346350669863 {
							var14 = 0.01612985808765537
						} else {
							var14 = -0.005935093040736216
						}
					}
				}
			} else {
				if input[2] <= -1.182625889778137 {
					var14 = 0.009167853957783861
				} else {
					if input[6] > 2.3511521816253667 {
						var14 = 0.01021649275466177
					} else {
						var14 = -0.005734125800030781
					}
				}
			}
		}
	}
	var var15 float64
	if input[5] <= -0.462526649236679 {
		if input[6] > 0.504024624824524 {
			if input[4] <= -0.31284104287624354 {
				if input[7] > 0.40512159466743475 {
					var15 = -0.0022197415523110583
				} else {
					var15 = 0.011234686775599759
				}
			} else {
				if input[2] <= -1.182625889778137 {
					var15 = 0.01311678588054234
				} else {
					if input[4] > 1.174558997154236 {
						var15 = -0.00344022342671409
					} else {
						if input[7] > 0.13341860473155978 {
							var15 = -0.008525962732444152
						} else {
							if input[9] > 2.185497879981995 {
								var15 = -0.02174710176057286
							} else {
								var15 = 0.004770499969979678
							}
						}
					}
				}
			}
		} else {
			if input[4] > 1.8018573522567751 {
				var15 = -0.0084438446375391
			} else {
				if input[2] > 0.3337437212467194 {
					var15 = -0.0029339688635042944
				} else {
					if input[9] > 2.185497879981995 {
						var15 = -0.018162730362972404
					} else {
						if input[6] <= -0.5596342086791991 {
							if input[1] > 0.32369874417781835 {
								if input[8] > 0.6025767624378205 {
									var15 = -0.0035109640033105503
								} else {
									if input[1] > 1.8112120032310488 {
										var15 = -0.007286292829761102
									} else {
										var15 = 0.0016106389772681366
									}
								}
							} else {
								var15 = -0.008074550724833268
							}
						} else {
							if input[1] > 0.000000000000000000000000000000000010000000180025095 {
								if input[2] <= -0.6410653591156005 {
									var15 = 0.010328580480734316
								} else {
									if input[1] > 0.32369874417781835 {
										var15 = 0.00831678052674415
									} else {
										var15 = 0.001735392205596473
									}
								}
							} else {
								if input[6] <= -0.24491861462593076 {
									var15 = -0.011861739606919323
								} else {
									var15 = 0.0016430048382182995
								}
							}
						}
					}
				}
			}
		}
	} else {
		if input[5] > 1.6446909308433535 {
			var15 = -0.007019204634910962
		} else {
			if input[5] > 1.6110931634902956 {
				var15 = 0.008362877798211238
			} else {
				if input[2] > 0.9836164712905885 {
					var15 = -0.006738370783114215
				} else {
					if input[6] > 0.504024624824524 {
						if input[9] > 2.185497879981995 {
							if input[5] > 0.26190020143985754 {
								var15 = 0.010534891028676116
							} else {
								var15 = 0.05185919970555125
							}
						} else {
							if input[5] > 1.4325346350669863 {
								if input[2] > 0.8753043413162233 {
									var15 = 0.013971512066583112
								} else {
									var15 = -0.007433866681647004
								}
							} else {
								if input[2] <= -0.7493774890899657 {
									var15 = 0.0026634675370898926
								} else {
									var15 = -0.0053578971325495515
								}
							}
						}
					} else {
						if input[8] <= -1.1649495363235471 {
							if input[8] <= -1.1930513978004453 {
								var15 = -0.0005900341480110701
							} else {
								var15 = 0.04930158702844984
							}
						} else {
							var15 = -0.005141770304996482
						}
					}
				}
			}
		}
	}
	var var16 float64
	if input[5] <= -0.462526649236679 {
		if input[6] > 1.322019398212433 {
			if input[9] > 0.000000000000000000000000000000000010000000180025095 {
				if input[4] > 0.4896948635578156 {
					if input[2] <= -0.966001659631729 {
						var16 = 0.012032722154999995
					} else {
						var16 = -0.015339984829749978
					}
				} else {
					var16 = 0.005158642853746684
				}
			} else {
				if input[1] <= -0.9513126611709594 {
					var16 = 0.012471843128103469
				} else {
					if input[7] > 1.2804179787635805 {
						var16 = -0.02590571407477061
					} else {
						if input[6] > 2.8119381666183476 {
							var16 = -0.017399535860334124
						} else {
							var16 = 0.007708684729158137
						}
					}
				}
			}
		} else {
			if input[6] <= -0.4069241434335708 {
				if input[9] > 0.000000000000000000000000000000000010000000180025095 {
					var16 = -0.00296750986771583
				} else {
					if input[3] <= -0.07119638100266455 {
						var16 = -0.00397156266806544
					} else {
						if input[1] > 0.11119683785364033 {
							if input[1] > 2.2362158298492436 {
								var16 = -0.003325738315275004
							} else {
								var16 = 0.002038505178594064
							}
						} else {
							var16 = -0.005200977724759285
						}
					}
				}
			} else {
				if input[3] <= -0.40319171547889704 {
					if input[4] > 2.4062987565994267 {
						var16 = -0.011185949687157285
					} else {
						var16 = -0.001088829379222008
					}
				} else {
					if input[2] <= -0.966001659631729 {
						if input[1] <= -1.163814604282379 {
							var16 = -0.014592825563241405
						} else {
							var16 = 0.008528669171238954
						}
					} else {
						if input[0] > 1.8397220373153689 {
							var16 = -0.023922804807584117
						} else {
							if input[8] > 1.3541179299354555 {
								var16 = -0.001494440220282352
							} else {
								if input[7] > 0.829872488975525 {
									if input[0] > 0.000000000000000000000000000000000010000000180025095 {
										var16 = -0.006883945475698908
									} else {
										var16 = 0.0064587841613441555
									}
								} else {
									if input[9] > 2.185497879981995 {
										var16 = -0.020430458528654917
									} else {
										var16 = 0.003457090110096868
									}
								}
							}
						}
					}
				}
			}
		}
	} else {
		if input[3] <= -1.0376926660537718 {
			var16 = -0.0060532797531435934
		} else {
			if input[3] <= -0.9649200439453124 {
				if input[6] > 0.40044730901718145 {
					if input[8] <= -0.7099178433418273 {
						var16 = -0.006317085462868748
					} else {
						var16 = 0.011866189650755893
					}
				} else {
					var16 = -0.005932208479680047
				}
			} else {
				if input[2] <= -0.2078168764710426 {
					var16 = -0.0005290301756465742
				} else {
					if input[5] > 0.17016714066267016 {
						var16 = -0.00656234220055591
					} else {
						if input[9] > 0.000000000000000000000000000000000010000000180025095 {
							if input[6] <= -0.5915041863918303 {
								var16 = -0.006244364672659802
							} else {
								var16 = 0.008290865598968083
							}
						} else {
							var16 = -0.005471942792989552
						}
					}
				}
			}
		}
	}
	var var17 float64
	if input[5] <= -0.462526649236679 {
		if input[6] > 0.504024624824524 {
			if input[4] <= -0.31284104287624354 {
				var17 = 0.00883357179919963
			} else {
				if input[2] <= -1.182625889778137 {
					var17 = 0.010746973433664868
				} else {
					if input[3] <= -1.8752912282943723 {
						var17 = -0.010753353439780124
					} else {
						if input[2] <= -0.3161289989948272 {
							var17 = 0.004147868324357882
						} else {
							var17 = -0.0004541866448669746
						}
					}
				}
			}
		} else {
			if input[4] > 1.8018573522567751 {
				var17 = -0.0072404002845626245
			} else {
				if input[2] > 0.22543159872293475 {
					if input[1] <= -0.31380696594715113 {
						if input[7] > 0.5375337898731233 {
							var17 = -0.006429222338411907
						} else {
							var17 = 0.003110735222753554
						}
					} else {
						if input[1] > 1.598710119724274 {
							if input[1] > 2.8737214803695683 {
								var17 = -0.006252539511777459
							} else {
								var17 = -0.00015967584859135134
							}
						} else {
							if input[6] <= -1.004485249519348 {
								var17 = -0.017699565585139847
							} else {
								if input[7] > 0.4653089493513108 {
									var17 = -0.010879130673613298
								} else {
									var17 = -0.0010295972381326934
								}
							}
						}
					}
				} else {
					if input[1] > 1.598710119724274 {
						var17 = -0.007383144151918936
					} else {
						if input[8] > 1.4045569300651553 {
							var17 = -0.0030970525858903595
						} else {
							if input[9] > 2.185497879981995 {
								var17 = -0.015678082138080807
							} else {
								if input[6] <= -0.04174797423183917 {
									if input[1] <= -0.31380696594715113 {
										if input[2] <= -0.5327532440423964 {
											var17 = -0.01514244394185258
										} else {
											var17 = 0.0006501037824057114
										}
									} else {
										var17 = 0.0014987370190937578
									}
								} else {
									if input[1] <= -0.31380696594715113 {
										var17 = 0.0017565316075683
									} else {
										var17 = 0.00815341368413247
									}
								}
							}
						}
					}
				}
			}
		}
	} else {
		if input[5] > 1.6446909308433535 {
			var17 = -0.005739314094244835
		} else {
			if input[6] > 0.40044730901718145 {
				if input[0] > 1.8397220373153689 {
					var17 = -0.006356664358377658
				} else {
					if input[5] > 1.4325346350669863 {
						if input[2] > 0.8753043413162233 {
							var17 = 0.012105191627314115
						} else {
							var17 = -0.0037024047185440323
						}
					} else {
						if input[9] > 2.185497879981995 {
							if input[5] > 0.6246798336505891 {
								var17 = 0.0014272643443273038
							} else {
								var17 = 0.04318659708889063
							}
						} else {
							if input[2] <= -0.7493774890899657 {
								if input[3] <= -1.8752912282943723 {
									var17 = -0.012830103315817293
								} else {
									var17 = 0.004926176305375455
								}
							} else {
								var17 = -0.004196935441252832
							}
						}
					}
				}
			} else {
				var17 = -0.004485527546338805
			}
		}
	}
	var var18 float64
	if input[5] > 0.08749415352940561 {
		if input[6] > 0.40044730901718145 {
			if input[4] <= -0.9608801007270812 {
				if input[2] <= -1.182625889778137 {
					var18 = 0.015051452969948862
				} else {
					var18 = -0.0050392467537560106
				}
			} else {
				if input[5] > 1.4325346350669863 {
					if input[3] <= -1.0376926660537718 {
						var18 = -0.005890605262073993
					} else {
						var18 = 0.011083334071888905
					}
				} else {
					var18 = -0.002019386515112296
				}
			}
		} else {
			var18 = -0.00492077847345972
		}
	} else {
		if input[2] <= -0.966001659631729 {
			if input[6] > 1.322019398212433 {
				var18 = 0.010625975993918438
			} else {
				if input[3] <= -1.5504304170608518 {
					var18 = -0.004073896530064649
				} else {
					if input[1] <= -1.163814604282379 {
						var18 = -0.014670288437291196
					} else {
						var18 = 0.006052871484663649
					}
				}
			}
		} else {
			if input[4] > 1.0865170955657961 {
				if input[4] > 1.8018573522567751 {
					var18 = -0.006955888754840627
				} else {
					var18 = -0.0023063540387535768
				}
			} else {
				if input[2] <= -0.09950475580990313 {
					if input[6] > 1.9408270716667178 {
						if input[1] <= -0.526308849453926 {
							var18 = 0.008820674410445612
						} else {
							var18 = -0.023614472118052808
						}
					} else {
						if input[8] > 0.9333125650882722 {
							var18 = -0.00005835945270057241
						} else {
							var18 = 0.002373225714637661
						}
					}
				} else {
					if input[5] > 0.06371150352060796 {
						if input[1] > 0.11119683785364033 {
							var18 = -0.009394388493489135
						} else {
							if input[1] > 0.000000000000000000000000000000000010000000180025095 {
								var18 = 0.06266761516015251
							} else {
								var18 = 0.0057762025381034275
							}
						}
					} else {
						if input[7] > 0.04055810347199441 {
							if input[1] > 1.386208236217499 {
								if input[8] > 0.09350331500172616 {
									var18 = -0.010850087944458773
								} else {
									var18 = 0.0040842647742523166
								}
							} else {
								if input[5] > 0.025206298567354683 {
									var18 = 0.02293261468410492
								} else {
									var18 = -0.007771937989917434
								}
							}
						} else {
							if input[1] > 2.4487177133560185 {
								var18 = -0.005742810084736585
							} else {
								if input[9] > 0.000000000000000000000000000000000010000000180025095 {
									if input[1] > 0.11119683785364033 {
										var18 = -0.003327380874895019
									} else {
										if input[4] > 0.012659986037760975 {
											var18 = -0.0013105175838092785
										} else {
											var18 = 0.006155384644604964
										}
									}
								} else {
									if input[5] <= -0.2590529024600982 {
										if input[4] <= -0.49442742764949793 {
											if input[6] <= -0.48659890890121454 {
												var18 = -0.0033558668418862355
											} else {
												var18 = 0.01546016985582093
											}
										} else {
											var18 = 0.0017343405916847025
										}
									} else {
										var18 = -0.004817051971924603
									}
								}
							}
						}
					}
				}
			}
		}
	}
	var var19 float64
	if input[5] > 0.08749415352940561 {
		if input[2] <= -1.2909380197525022 {
			var19 = 0.016478431674104243
		} else {
			if input[8] <= -0.49230955541133875 {
				var19 = -0.004627154961986692
			} else {
				if input[0] > 0.8669024854898454 {
					if input[4] <= -0.9608801007270812 {
						var19 = -0.004827729506946322
					} else {
						if input[5] > 1.4325346350669863 {
							var19 = 0.009164254078605575
						} else {
							var19 = -0.00272588096654568
						}
					}
				} else {
					if input[2] <= -0.6410653591156005 {
						if input[3] <= -1.7235626578330991 {
							var19 = -0.007256326644912663
						} else {
							var19 = 0.001404877578605762
						}
					} else {
						var19 = -0.00492817885991896
					}
				}
			}
		}
	} else {
		if input[2] <= -0.966001659631729 {
			if input[6] > 1.322019398212433 {
				var19 = 0.00956337836345816
			} else {
				if input[3] <= -0.40319171547889704 {
					var19 = 0.0001992762010523197
				} else {
					if input[1] <= -1.163814604282379 {
						var19 = -0.012267400588549622
					} else {
						var19 = 0.006444978005290732
					}
				}
			}
		} else {
			if input[6] > 1.628767251968384 {
				if input[1] <= -0.526308849453926 {
					if input[3] <= -2.0779130458831783 {
						var19 = -0.03170300450395135
					} else {
						var19 = 0.006720099165253023
					}
				} else {
					var19 = -0.01835167468102141
				}
			} else {
				if input[3] <= -0.40319171547889704 {
					if input[2] <= -0.42444112896919245 {
						var19 = -0.0013682351467018995
					} else {
						var19 = -0.0051822078030387166
					}
				} else {
					if input[6] <= -0.8052981793880462 {
						if input[1] > 0.7487025260925294 {
							if input[1] > 2.8737214803695683 {
								var19 = -0.0052347251115493635
							} else {
								if input[4] <= -0.10247189924120902 {
									var19 = -0.003604114938424172
								} else {
									if input[8] > 0.367675468325615 {
										var19 = -0.003681981106266589
									} else {
										if input[9] > 0.000000000000000000000000000000000010000000180025095 {
											var19 = -0.0012719089456038944
										} else {
											var19 = 0.0025402949129685695
										}
									}
								}
							}
						} else {
							var19 = -0.008888967192848997
						}
					} else {
						if input[5] > 0.06371150352060796 {
							if input[4] > 0.13329413533210757 {
								var19 = 0.05928135000388412
							} else {
								if input[8] <= -0.329103335738182 {
									var19 = -0.009836873019996443
								} else {
									var19 = 0.04556200411915779
								}
							}
						} else {
							if input[3] > 0.11477816477417947 {
								if input[8] > 0.6025767624378205 {
									var19 = 0.0005052520101977773
								} else {
									if input[2] > 2.175049781799317 {
										var19 = -0.014775130675355
									} else {
										var19 = 0.002660379112562266
									}
								}
							} else {
								if input[2] <= -0.42444112896919245 {
									var19 = 0.001869992132860136
								} else {
									var19 = -0.002332087257351298
								}
							}
						}
					}
				}
			}
		}
	}
	var var20 float64
	if input[2] <= -0.09950475580990313 {
		if input[3] <= -1.3872865438461301 {
			var20 = -0.003493988116064949
		} else {
			if input[2] <= -1.0743137598037718 {
				var20 = 0.007545193995363753
			} else {
				if input[6] > 2.232967853546143 {
					var20 = 0.007894960997763906
				} else {
					if input[8] > 1.4045569300651553 {
						var20 = -0.0022386181455890416
					} else {
						if input[6] <= -0.04174797423183917 {
							if input[1] <= -0.31380696594715113 {
								if input[2] <= -0.5327532440423964 {
									var20 = -0.013723926744706723
								} else {
									var20 = -0.001719247078350217
								}
							} else {
								if input[2] <= -0.5327532440423964 {
									if input[1] > 0.11119683785364033 {
										var20 = 0.0076750851763447495
									} else {
										if input[3] > 1.9535944461822512 {
											var20 = -0.015543519279413057
										} else {
											var20 = 0.0017934238557542057
										}
									}
								} else {
									if input[1] > 0.11119683785364033 {
										var20 = 0.000999525755340122
									} else {
										var20 = -0.011080893657072913
									}
								}
							}
						} else {
							if input[1] <= -0.31380696594715113 {
								if input[3] <= -0.7109293937683104 {
									var20 = -0.0019915075180575305
								} else {
									var20 = 0.0027109035850251184
								}
							} else {
								if input[7] > 2.693961143493653 {
									var20 = 0.021846467219461683
								} else {
									var20 = 0.006087066575069779
								}
							}
						}
					}
				}
			}
		}
	} else {
		if input[7] > 0.000000000000000000000000000000000010000000180025095 {
			if input[1] > 1.386208236217499 {
				if input[8] > 0.09350331500172616 {
					var20 = -0.008879324320461504
				} else {
					if input[2] > 0.9836164712905885 {
						var20 = -0.004361033696009215
					} else {
						var20 = 0.00500693737208054
					}
				}
			} else {
				if input[4] <= -0.2044817507266998 {
					var20 = -0.003913982720196057
				} else {
					var20 = -0.007859227743378393
				}
			}
		} else {
			if input[3] <= -1.0376926660537718 {
				var20 = -0.004487485831941996
			} else {
				if input[3] <= -0.9649200439453124 {
					if input[4] <= -0.744584947824478 {
						if input[4] <= -0.9608801007270812 {
							var20 = -0.006955745483186388
						} else {
							var20 = 0.008796627663891296
						}
					} else {
						var20 = -0.007297197371608594
					}
				} else {
					if input[5] > 0.08749415352940561 {
						var20 = -0.00458300461348958
					} else {
						if input[1] > 2.2362158298492436 {
							if input[6] <= -1.2913146018981931 {
								if input[1] > 2.6612195968627934 {
									var20 = -0.00554092143398282
								} else {
									var20 = 0.004966971733105871
								}
							} else {
								var20 = -0.013735253427053173
							}
						} else {
							if input[5] > 0.06371150352060796 {
								if input[1] > 0.000000000000000000000000000000000010000000180025095 {
									var20 = 0.045330138495528555
								} else {
									var20 = -0.01246562100670956
								}
							} else {
								var20 = 0.0004481104438891278
							}
						}
					}
				}
			}
		}
	}
	var var21 float64
	if input[5] > 0.08749415352940561 {
		if input[2] <= -1.2909380197525022 {
			var21 = 0.01429796161963113
		} else {
			var21 = -0.00284091405802437
		}
	} else {
		if input[2] <= -0.966001659631729 {
			if input[1] <= -0.9513126611709594 {
				if input[6] > 0.8107726275920869 {
					var21 = 0.00866861858182407
				} else {
					var21 = -0.012276271811940454
				}
			} else {
				if input[3] <= -0.0217300490476191 {
					var21 = 0.00014190938213618854
				} else {
					var21 = 0.005154291573274939
				}
			}
		} else {
			if input[4] > 0.948951542377472 {
				var21 = -0.00209342090805903
			} else {
				if input[2] <= -0.09950475580990313 {
					if input[6] > 1.9408270716667178 {
						if input[1] <= -0.526308849453926 {
							var21 = 0.006957667019797645
						} else {
							var21 = -0.02051471924080568
						}
					} else {
						if input[1] > 0.5362006425857545 {
							if input[2] <= -0.3161289989948272 {
								var21 = 0.010289323207158002
							} else {
								var21 = 0.0019029226826185902
							}
						} else {
							if input[6] <= -0.6831301748752593 {
								var21 = -0.009082128011735439
							} else {
								if input[6] <= -0.4069241434335708 {
									if input[1] > 0.11119683785364033 {
										var21 = 0.0003800606008205602
									} else {
										var21 = -0.008225723344821472
									}
								} else {
									if input[1] > 0.11119683785364033 {
										var21 = 0.007210372548335589
									} else {
										if input[6] <= -0.04174797423183917 {
											if input[1] <= -0.31380696594715113 {
												var21 = -0.012772860708780262
											} else {
												if input[3] > 1.2096967697143557 {
													var21 = -0.004072420491534598
												} else {
													var21 = 0.002439963916160585
												}
											}
										} else {
											var21 = 0.0024400426983216313
										}
									}
								}
							}
						}
					}
				} else {
					if input[5] > 0.06371150352060796 {
						if input[1] > 0.11119683785364033 {
							var21 = -0.00896027631154566
						} else {
							if input[1] > 0.000000000000000000000000000000000010000000180025095 {
								var21 = 0.04745485002731348
							} else {
								var21 = 0.004576186146938576
							}
						}
					} else {
						if input[7] > 0.05087593756616116 {
							if input[1] > 1.386208236217499 {
								if input[8] > 0.02937361225485802 {
									var21 = -0.0080010460246874
								} else {
									var21 = 0.0037482912530118397
								}
							} else {
								if input[5] > 0.025206298567354683 {
									var21 = 0.021430118360689712
								} else {
									var21 = -0.006053002142583072
								}
							}
						} else {
							if input[1] > 2.2362158298492436 {
								if input[6] <= -1.2913146018981931 {
									if input[1] > 2.6612195968627934 {
										var21 = -0.004848204337269346
									} else {
										var21 = 0.004843152507341335
									}
								} else {
									var21 = -0.012218169932111908
								}
							} else {
								if input[0] > 2.8125416040420537 {
									var21 = -0.02282005707723099
								} else {
									var21 = 0.0007263521119707816
								}
							}
						}
					}
				}
			}
		}
	}
	var var22 float64
	if input[2] <= -0.5327532440423964 {
		if input[6] > 0.8107726275920869 {
			if input[1] <= -0.526308849453926 {
				if input[3] <= -1.8752912282943723 {
					if input[2] <= -1.2909380197525022 {
						var22 = 0.007431757909879365
					} else {
						var22 = -0.007313256328596789
					}
				} else {
					if input[1] <= -0.9513126611709594 {
						var22 = 0.006901245199709219
					} else {
						if input[6] > 2.8119381666183476 {
							var22 = -0.019244630932807923
						} else {
							if input[4] <= -0.6912518739700316 {
								var22 = 0.0095996279078336
							} else {
								var22 = 0.0021738412503684154
							}
						}
					}
				}
			} else {
				var22 = -0.018178051662881202
			}
		} else {
			if input[1] <= -0.9513126611709594 {
				var22 = -0.009584572183194098
			} else {
				if input[3] <= -1.1794328689575193 {
					var22 = -0.0035385557696227007
				} else {
					if input[8] > 1.3541179299354555 {
						var22 = -0.0009415075096451727
					} else {
						if input[1] > 0.11119683785364033 {
							var22 = 0.0070683336542473624
						} else {
							if input[2] <= -0.7493774890899657 {
								if input[1] <= -0.31380696594715113 {
									if input[8] > 0.5157497972249986 {
										var22 = 0.001006356567307744
									} else {
										var22 = 0.004930845093255663
									}
								} else {
									if input[7] > 2.9587855339050297 {
										var22 = 0.02733761502996735
									} else {
										var22 = 0.006151670082760494
									}
								}
							} else {
								if input[1] <= -0.31380696594715113 {
									var22 = -0.01291592401529544
								} else {
									if input[3] > 1.9535944461822512 {
										var22 = -0.013920805825377412
									} else {
										var22 = 0.0019018201150811547
									}
								}
							}
						}
					}
				}
			}
		}
	} else {
		if input[3] <= -0.2096070274710655 {
			var22 = -0.00296112821357334
		} else {
			if input[6] <= -0.8052981793880462 {
				if input[1] > 0.7487025260925294 {
					if input[4] > 0.012659986037760975 {
						if input[1] > 2.8737214803695683 {
							var22 = -0.004096155161994436
						} else {
							var22 = 0.0007077304033168133
						}
					} else {
						var22 = -0.00281277928185954
					}
				} else {
					var22 = -0.006517514899274754
				}
			} else {
				if input[3] > 0.5813788771629335 {
					if input[6] > 0.06315728649497034 {
						var22 = 0.0052801636817367435
					} else {
						if input[1] > 0.5362006425857545 {
							var22 = 0.004052569374154334
						} else {
							if input[6] <= -0.5596342086791991 {
								var22 = -0.00348707123497582
							} else {
								if input[2] > 0.8753043413162233 {
									if input[5] > 0.0018011279607890176 {
										if input[4] <= -0.43135897815227503 {
											var22 = 0.018958386114757995
										} else {
											var22 = 0.08591263294219971
										}
									} else {
										var22 = 0.006299731991147109
									}
								} else {
									var22 = 0.0007910536652826107
								}
							}
						}
					}
				} else {
					var22 = -0.00039985355507751643
				}
			}
		}
	}
	var var23 float64
	if input[2] <= -0.09950475580990313 {
		if input[3] <= -1.3872865438461301 {
			if input[6] > 1.628767251968384 {
				var23 = 0.002436832178872122
			} else {
				var23 = -0.003628994827889715
			}
		} else {
			if input[2] <= -0.966001659631729 {
				if input[6] > 1.322019398212433 {
					if input[1] <= -0.9513126611709594 {
						if input[5] > 0.954616814851761 {
							var23 = 0.025376477394222233
						} else {
							var23 = 0.00839127140413455
						}
					} else {
						var23 = 0.0032747092670439345
					}
				} else {
					if input[1] <= -1.163814604282379 {
						var23 = -0.012309127847353617
					} else {
						var23 = 0.0037125770170539545
					}
				}
			} else {
				if input[8] > 0.858734965324402 {
					var23 = -0.0006184531099091149
				} else {
					if input[9] > 0.000000000000000000000000000000000010000000180025095 {
						var23 = 0.000058727105022432755
					} else {
						if input[3] > 2.3673994541168217 {
							var23 = 0.01442865786045345
						} else {
							if input[6] > 2.232967853546143 {
								var23 = 0.006505742034948383
							} else {
								var23 = 0.0017970317260830482
							}
						}
					}
				}
			}
		}
	} else {
		if input[7] > 0.000000000000000000000000000000000010000000180025095 {
			if input[1] > 1.386208236217499 {
				if input[8] > 0.09350331500172616 {
					var23 = -0.00716813788282798
				} else {
					if input[2] > 0.9836164712905885 {
						var23 = -0.0036076618153145557
					} else {
						if input[8] <= -0.6292155683040618 {
							var23 = 0.009443801917649548
						} else {
							if input[3] > 1.2791397571563723 {
								var23 = -0.02037910360980917
							} else {
								var23 = 0.0023297002811620876
							}
						}
					}
				}
			} else {
				if input[4] <= -0.2044817507266998 {
					var23 = -0.0029532772307384863
				} else {
					if input[9] > 2.185497879981995 {
						if input[6] > 0.16275070607662204 {
							var23 = 0.04870297497138382
						} else {
							var23 = 0.0018974077585782554
						}
					} else {
						var23 = -0.006799163856891191
					}
				}
			}
		} else {
			if input[6] <= -0.324593499302864 {
				if input[3] <= -0.25907336175441736 {
					var23 = -0.003907601775657038
				} else {
					if input[9] > 0.000000000000000000000000000000000010000000180025095 {
						var23 = -0.0027719039385918375
					} else {
						var23 = 0.00037277980248585484
					}
				}
			} else {
				if input[0] > 1.8397220373153689 {
					var23 = -0.003983198473804412
				} else {
					if input[2] > 0.8753043413162233 {
						if input[1] > 0.000000000000000000000000000000000010000000180025095 {
							var23 = -0.005607188508134487
						} else {
							if input[4] <= -0.9608801007270812 {
								var23 = -0.008983270647568686
							} else {
								var23 = 0.008455218983761803
							}
						}
					} else {
						if input[3] > 0.5813788771629335 {
							if input[5] <= -0.20242758095264432 {
								var23 = 0.005937345603388568
							} else {
								var23 = -0.005819107015867608
							}
						} else {
							var23 = -0.0012229390640501065
						}
					}
				}
			}
		}
	}
	var var24 float64
	if input[5] > 0.08749415352940561 {
		if input[2] <= -0.8576895892620086 {
			if input[3] <= -1.7235626578330991 {
				var24 = -0.005152204590932645
			} else {
				if input[6] > 1.322019398212433 {
					var24 = 0.0109271032745921
				} else {
					if input[1] <= -0.7388107180595397 {
						var24 = -0.0024159553388530346
					} else {
						var24 = 0.006800420702576776
					}
				}
			}
		} else {
			var24 = -0.0023879616699822924
		}
	} else {
		if input[6] <= -0.09884813800454138 {
			if input[9] > 2.185497879981995 {
				var24 = -0.012476107843348377
			} else {
				if input[3] <= -0.540175437927246 {
					var24 = -0.003532233684972526
				} else {
					if input[5] > 0.06371150352060796 {
						if input[1] > 0.11119683785364033 {
							var24 = -0.00783125237231293
						} else {
							if input[1] > 0.000000000000000000000000000000000010000000180025095 {
								var24 = 0.044632465461889904
							} else {
								var24 = 0.008169649286967952
							}
						}
					} else {
						if input[9] > 0.000000000000000000000000000000000010000000180025095 {
							if input[3] > 1.1393022537231448 {
								var24 = -0.004908291872305918
							} else {
								if input[5] > 0.0018011279607890176 {
									if input[3] > 0.6484438180923463 {
										if input[4] <= -0.43135897815227503 {
											var24 = -0.011838265898681824
										} else {
											var24 = 0.05611152036322488
										}
									} else {
										var24 = 0.0018589001191271978
									}
								} else {
									if input[2] <= -0.3161289989948272 {
										if input[1] > 0.5362006425857545 {
											var24 = 0.01984866580253915
										} else {
											var24 = 0.000570225615799731
										}
									} else {
										var24 = -0.0016856779378369776
									}
								}
							}
						} else {
							var24 = 0.0005347756615355296
						}
					}
				}
			}
		} else {
			if input[3] > 1.1393022537231448 {
				if input[9] > 0.000000000000000000000000000000000010000000180025095 {
					var24 = 0.0012668097918646561
				} else {
					if input[2] <= -0.3161289989948272 {
						var24 = 0.0056353205966551585
					} else {
						if input[8] <= -0.14536126703023908 {
							var24 = 0.009539825232096122
						} else {
							var24 = 0.02179166701506581
						}
					}
				}
			} else {
				if input[6] > 1.7230492830276491 {
					if input[7] > 2.693961143493653 {
						var24 = -0.027420595032828194
					} else {
						var24 = 0.005220705887421092
					}
				} else {
					if input[7] > 0.13341860473155978 {
						if input[7] > 2.1178822517395024 {
							if input[1] <= -0.31380696594715113 {
								var24 = -0.0015088041677783612
							} else {
								var24 = 0.013420309597819017
							}
						} else {
							if input[9] > 2.185497879981995 {
								var24 = 0.026521965385751523
							} else {
								var24 = -0.007577516346935691
							}
						}
					} else {
						if input[3] <= -2.0427156686782832 {
							var24 = -0.006930582392359934
						} else {
							if input[8] <= -1.1649495363235471 {
								var24 = -0.0027951146267128717
							} else {
								var24 = 0.0015675111822370026
							}
						}
					}
				}
			}
		}
	}
	var var25 float64
	if input[2] <= -0.5327532440423964 {
		if input[3] <= -1.7906276583671568 {
			var25 = -0.003965794652085164
		} else {
			if input[6] > 0.8107726275920869 {
				if input[1] <= -0.526308849453926 {
					var25 = 0.004327766088161412
				} else {
					var25 = -0.017900821434858754
				}
			} else {
				if input[1] <= -0.9513126611709594 {
					var25 = -0.00839738989633888
				} else {
					if input[1] > 0.11119683785364033 {
						if input[8] > 0.858734965324402 {
							var25 = 0.0007242061500080649
						} else {
							var25 = 0.007584408607102768
						}
					} else {
						if input[8] > 1.3541179299354555 {
							var25 = -0.0012088425781735233
						} else {
							if input[1] <= -0.526308849453926 {
								if input[2] <= -0.8576895892620086 {
									var25 = 0.0010002992212007511
								} else {
									var25 = -0.015136909274361938
								}
							} else {
								if input[7] > 2.9587855339050297 {
									var25 = 0.019439020244912668
								} else {
									if input[2] <= -0.7493774890899657 {
										var25 = 0.003333975909303392
									} else {
										if input[1] <= -0.31380696594715113 {
											var25 = -0.010027104199031769
										} else {
											if input[3] > 1.9535944461822512 {
												var25 = -0.012581306594722678
											} else {
												var25 = 0.001532993322763242
											}
										}
									}
								}
							}
						}
					}
				}
			}
		}
	} else {
		if input[3] > 0.1547317206859589 {
			if input[6] <= -0.8876288235187529 {
				if input[1] > 0.9612043797969819 {
					if input[2] > 0.1171194836497307 {
						if input[1] > 1.386208236217499 {
							if input[1] > 2.023713886737824 {
								var25 = -0.001999690244510077
							} else {
								if input[6] <= -1.2408538460731504 {
									var25 = -0.016231898464369433
								} else {
									var25 = 0.00263790768148314
								}
							}
						} else {
							var25 = -0.02086088214158882
						}
					} else {
						if input[1] > 1.386208236217499 {
							var25 = -0.005655846683402522
						} else {
							var25 = 0.0032737459671435785
						}
					}
				} else {
					if input[1] > 0.5362006425857545 {
						var25 = -0.01542991295018617
					} else {
						var25 = -0.0029915372148740836
					}
				}
			} else {
				var25 = 0.0012264237641596105
			}
		} else {
			if input[3] <= -1.0472055077552793 {
				var25 = -0.003190217345924866
			} else {
				if input[3] <= -0.9649200439453124 {
					if input[6] > 0.40044730901718145 {
						if input[4] <= -0.9608801007270812 {
							var25 = -0.004186868797751922
						} else {
							if input[5] > 1.4325346350669863 {
								var25 = 0.008245669447031012
							} else {
								var25 = -0.0048862311186634805
							}
						}
					} else {
						var25 = -0.0037204931562559475
					}
				} else {
					if input[2] > 0.5503679513931276 {
						var25 = -0.00321972219556904
					} else {
						if input[8] > 0.6025767624378205 {
							var25 = -0.003361176277608353
						} else {
							var25 = -0.00032768507712767223
						}
					}
				}
			}
		}
	}
	var var26 float64
	if input[2] <= -0.5327532440423964 {
		if input[3] <= -1.7235626578330991 {
			var26 = -0.0027737243563723036
		} else {
			if input[6] > 0.8107726275920869 {
				if input[1] <= -0.526308849453926 {
					var26 = 0.0038693841561472557
				} else {
					var26 = -0.01611073928067039
				}
			} else {
				if input[1] <= -0.9513126611709594 {
					var26 = -0.007701344586959733
				} else {
					if input[1] > 0.11119683785364033 {
						var26 = 0.004751697038203
					} else {
						if input[2] <= -0.7493774890899657 {
							if input[1] <= -0.31380696594715113 {
								if input[8] > 0.5157497972249986 {
									var26 = 0.0002226751193342968
								} else {
									var26 = 0.0034667047433378424
								}
							} else {
								if input[4] <= -0.43135897815227503 {
									var26 = 0.010279535538183802
								} else {
									var26 = 0.0033118253400987135
								}
							}
						} else {
							if input[1] <= -0.31380696594715113 {
								var26 = -0.009973380344069523
							} else {
								if input[3] > 1.2096967697143557 {
									if input[9] > 0.000000000000000000000000000000000010000000180025095 {
										var26 = -0.011056261389004767
									} else {
										var26 = -0.0009752361148904465
									}
								} else {
									var26 = 0.001398404580329347
								}
							}
						}
					}
				}
			}
		}
	} else {
		if input[3] <= -0.2096070274710655 {
			if input[0] > 0.8669024854898454 {
				if input[8] <= -0.49230955541133875 {
					var26 = -0.002126442007082723
				} else {
					if input[4] <= -0.9608801007270812 {
						var26 = -0.0028437612715400073
					} else {
						var26 = 0.005354227354273102
					}
				}
			} else {
				var26 = -0.0028842446097455394
			}
		} else {
			if input[9] > 0.000000000000000000000000000000000010000000180025095 {
				if input[6] <= -0.5915041863918303 {
					var26 = -0.0019053106717032576
				} else {
					if input[1] > 0.7487025260925294 {
						var26 = -0.011471987495758406
					} else {
						if input[1] > 0.5362006425857545 {
							var26 = 0.01492434002943504
						} else {
							if input[4] <= -0.6912518739700316 {
								var26 = -0.003187621814870938
							} else {
								var26 = 0.0013516461560850294
							}
						}
					}
				}
			} else {
				if input[7] > 1.0396684408187868 {
					if input[8] <= -0.5323006510734557 {
						var26 = 0.0024372415063256235
					} else {
						var26 = -0.003659901738729419
					}
				} else {
					if input[5] <= -0.2590529024600982 {
						if input[1] <= -0.7388107180595397 {
							if input[8] <= -0.3175744414329528 {
								if input[6] <= -0.6831301748752593 {
									var26 = 0.026924276613352595
								} else {
									var26 = 0.0002709488432534386
								}
							} else {
								if input[3] > 1.1530957818031313 {
									var26 = 0.016349290082539162
								} else {
									var26 = 0.005766039432288611
								}
							}
						} else {
							if input[4] <= -1.2021487951278684 {
								var26 = 0.02353715525319179
							} else {
								var26 = 0.000659744307779525
							}
						}
					} else {
						var26 = -0.0026723902089316855
					}
				}
			}
		}
	}
	var var27 float64
	if input[2] <= -0.5327532440423964 {
		if input[2] <= -1.182625889778137 {
			var27 = 0.004747119259289757
		} else {
			if input[3] <= -2.0427156686782832 {
				var27 = -0.006655237708021612
			} else {
				if input[8] > 1.3112447261810305 {
					var27 = -0.0007701049927860474
				} else {
					if input[1] > 0.11119683785364033 {
						var27 = 0.005083623538196264
					} else {
						if input[6] > 0.504024624824524 {
							if input[9] > 0.000000000000000000000000000000000010000000180025095 {
								if input[8] <= -0.2447981163859367 {
									if input[1] <= -0.7388107180595397 {
										var27 = 0.0018591514384237733
									} else {
										var27 = 0.019842050529949303
									}
								} else {
									var27 = -0.0030840852941571902
								}
							} else {
								var27 = 0.0037876828356525464
							}
						} else {
							if input[1] <= -0.7388107180595397 {
								var27 = -0.007851762372337602
							} else {
								var27 = 0.0010461604666195912
							}
						}
					}
				}
			}
		}
	} else {
		if input[3] > 0.1547317206859589 {
			if input[6] <= -0.8876288235187529 {
				if input[1] > 0.9612043797969819 {
					if input[3] > 1.511251211166382 {
						var27 = -0.005299181416088227
					} else {
						if input[1] > 2.023713886737824 {
							var27 = -0.001668774910194284
						} else {
							if input[6] <= -1.2713958621025083 {
								var27 = -0.013324311552208546
							} else {
								var27 = 0.0015030926798021605
							}
						}
					}
				} else {
					if input[1] > 0.5362006425857545 {
						var27 = -0.013794124329864394
					} else {
						var27 = -0.002607186068706649
					}
				}
			} else {
				if input[9] > 0.000000000000000000000000000000000010000000180025095 {
					var27 = -0.0003084828278590187
				} else {
					var27 = 0.0016411189099875192
				}
			}
		} else {
			if input[3] <= -1.0472055077552793 {
				var27 = -0.002629058460496771
			} else {
				if input[3] <= -0.9649200439453124 {
					if input[6] > 0.40044730901718145 {
						if input[4] <= -0.9608801007270812 {
							var27 = -0.0035459130054599124
						} else {
							var27 = 0.005903059496556965
						}
					} else {
						var27 = -0.0030875864607103247
					}
				} else {
					if input[2] > 0.5503679513931276 {
						var27 = -0.002704566210663964
					} else {
						if input[8] > 0.6025767624378205 {
							var27 = -0.0028749023759603747
						} else {
							if input[1] <= -1.163814604282379 {
								var27 = -0.003544924197061686
							} else {
								if input[1] <= -0.7388107180595397 {
									if input[7] > 1.0757808089256289 {
										var27 = -0.0070572610481034435
									} else {
										if input[5] <= -0.1476897522807121 {
											var27 = 0.007030686845470546
										} else {
											if input[9] > 2.185497879981995 {
												var27 = 0.023825394060334255
											} else {
												var27 = -0.003036748427092944
											}
										}
									}
								} else {
									if input[6] > 0.06315728649497034 {
										var27 = -0.006182075187045399
									} else {
										var27 = 0.00029379692957862716
									}
								}
							}
						}
					}
				}
			}
		}
	}
	var var28 float64
	if input[2] <= -0.7493774890899657 {
		if input[6] > 1.322019398212433 {
			if input[7] > 2.693961143493653 {
				var28 = -0.018600221098430694
			} else {
				if input[1] <= -0.9513126611709594 {
					if input[2] <= -0.8576895892620086 {
						var28 = 0.006419368212803147
					} else {
						var28 = -0.002318876517169616
					}
				} else {
					if input[6] > 2.8119381666183476 {
						var28 = -0.01803786618113518
					} else {
						var28 = 0.0025632593634405307
					}
				}
			}
		} else {
			if input[3] <= -1.7235626578330991 {
				var28 = -0.003498227525000519
			} else {
				if input[1] <= -0.31380696594715113 {
					if input[1] <= -1.163814604282379 {
						var28 = -0.008003900230090675
					} else {
						if input[2] <= -0.966001659631729 {
							if input[3] > 0.36543928086757665 {
								var28 = 0.003678966963216026
							} else {
								var28 = 0.00073935302300248
							}
						} else {
							if input[1] <= -0.7388107180595397 {
								var28 = -0.011591988780777412
							} else {
								var28 = 0.000598569488557119
							}
						}
					}
				} else {
					if input[4] <= -0.43135897815227503 {
						var28 = 0.00918727414706824
					} else {
						var28 = 0.0029220466569392614
					}
				}
			}
		}
	} else {
		if input[3] > 0.1547317206859589 {
			if input[9] > 0.000000000000000000000000000000000010000000180025095 {
				if input[3] > 1.1530957818031313 {
					var28 = -0.003735482991073677
				} else {
					var28 = -0.000296979741379816
				}
			} else {
				if input[3] > 2.3673994541168217 {
					var28 = 0.014985842148036313
				} else {
					if input[8] > 1.5162433385849001 {
						var28 = -0.007340426446679524
					} else {
						if input[6] <= -0.324593499302864 {
							if input[1] > 0.000000000000000000000000000000000010000000180025095 {
								var28 = 0.0007248598477721524
							} else {
								if input[2] <= -0.42444112896919245 {
									var28 = -0.007894238101076551
								} else {
									var28 = 0.0002487746336598798
								}
							}
						} else {
							if input[3] > 0.30075241625308996 {
								var28 = 0.002626959859809033
							} else {
								var28 = -0.0011151945998001502
							}
						}
					}
				}
			}
		} else {
			if input[3] <= -1.0472055077552793 {
				var28 = -0.0023316828323462343
			} else {
				if input[3] <= -0.9649200439453124 {
					if input[6] > 0.40044730901718145 {
						if input[4] <= -0.9608801007270812 {
							var28 = -0.0031913216005350596
						} else {
							if input[5] > 1.4325346350669863 {
								var28 = 0.006345969341827207
							} else {
								var28 = -0.004848740570014343
							}
						}
					} else {
						var28 = -0.002778827787395755
					}
				} else {
					if input[2] > 0.5503679513931276 {
						var28 = -0.0024341095916525085
					} else {
						if input[4] <= -0.6319930255413054 {
							var28 = -0.003437400661268015
						} else {
							if input[6] > 1.017927169799805 {
								var28 = 0.0022885891500723263
							} else {
								var28 = -0.0006066351412141475
							}
						}
					}
				}
			}
		}
	}
	var var29 float64
	if input[3] <= -0.15157920867204663 {
		if input[2] <= -1.2909380197525022 {
			var29 = 0.005605636342465026
		} else {
			if input[3] <= -2.131184339523315 {
				var29 = -0.004352454404887516
			} else {
				if input[2] <= -0.6410653591156005 {
					if input[1] > 0.000000000000000000000000000000000010000000180025095 {
						var29 = 0.007668786803957002
					} else {
						if input[6] > 3.4214503765106206 {
							if input[1] <= -1.163814604282379 {
								var29 = 0.011072924086425313
							} else {
								var29 = -0.021522554032730335
							}
						} else {
							var29 = -0.00003969954750794601
						}
					}
				} else {
					if input[8] > 0.5640271902084352 {
						var29 = -0.0034300976076518472
					} else {
						var29 = -0.0010510688825067912
					}
				}
			}
		}
	} else {
		if input[6] > 0.1468157768249512 {
			if input[3] > 1.1393022537231448 {
				if input[9] > 0.000000000000000000000000000000000010000000180025095 {
					var29 = 0.00036372473056347956
				} else {
					if input[2] <= -0.3161289989948272 {
						var29 = 0.004669069017962072
					} else {
						var29 = 0.010873211951838872
					}
				}
			} else {
				if input[0] > 2.8125416040420537 {
					var29 = -0.01897972181090154
				} else {
					if input[2] > 1.850113391876221 {
						var29 = 0.03267200357104476
					} else {
						if input[8] <= -0.2447981163859367 {
							var29 = -0.00044212384785178644
						} else {
							if input[1] <= -0.7388107180595397 {
								if input[7] > 1.366399943828583 {
									var29 = -0.007151351645827675
								} else {
									var29 = 0.003558953920930694
								}
							} else {
								if input[5] > 0.22830249369144442 {
									var29 = 0.009021886645188165
								} else {
									if input[1] <= -0.31380696594715113 {
										if input[8] <= -0.14536126703023908 {
											var29 = 0.0060733977492833345
										} else {
											var29 = -0.0014900930609966067
										}
									} else {
										var29 = 0.003714528721111045
									}
								}
							}
						}
					}
				}
			}
		} else {
			if input[9] > 2.185497879981995 {
				var29 = -0.008558900587071426
			} else {
				if input[1] <= -0.526308849453926 {
					if input[2] <= -0.6410653591156005 {
						var29 = -0.011508745624043967
					} else {
						if input[5] <= -0.20242758095264432 {
							var29 = 0.001387016844605811
						} else {
							var29 = -0.004456061495627499
						}
					}
				} else {
					if input[2] <= -0.2078168764710426 {
						if input[1] > 0.5362006425857545 {
							if input[2] <= -0.3161289989948272 {
								if input[9] > 0.000000000000000000000000000000000010000000180025095 {
									var29 = 0.016761300190850054
								} else {
									var29 = 0.006068349487048253
								}
							} else {
								var29 = 0.0019457205535575032
							}
						} else {
							if input[2] <= -0.3161289989948272 {
								var29 = 0.0005542868080187984
							} else {
								var29 = -0.010254936712626063
							}
						}
					} else {
						if input[8] > 0.47287662327289587 {
							var29 = -0.004429788713860314
						} else {
							var29 = -0.00028820959966506515
						}
					}
				}
			}
		}
	}
	var var30 float64
	if input[2] <= -0.7493774890899657 {
		if input[6] > 1.322019398212433 {
			var30 = 0.00342347439720362
		} else {
			if input[3] <= -1.7235626578330991 {
				var30 = -0.0029771361144687054
			} else {
				if input[8] > 0.5157497972249986 {
					var30 = 0.0005828872512411749
				} else {
					var30 = 0.0030711564747776614
				}
			}
		}
	} else {
		if input[3] <= -1.0472055077552793 {
			var30 = -0.0019537342219180407
		} else {
			if input[7] > 0.000000000000000000000000000000000010000000180025095 {
				if input[0] > 0.000000000000000000000000000000000010000000180025095 {
					var30 = -0.002435660077272649
				} else {
					if input[8] <= -0.5557188093662261 {
						var30 = 0.0045855871540088486
					} else {
						if input[3] > 1.2791397571563723 {
							var30 = -0.011473148614275216
						} else {
							var30 = -0.0005400831867666951
						}
					}
				}
			} else {
				if input[1] > 2.2362158298492436 {
					if input[6] <= -1.2913146018981931 {
						if input[1] > 2.6612195968627934 {
							if input[2] > 0.766992211341858 {
								if input[1] > 3.086223363876343 {
									if input[6] <= -1.4772223830223081 {
										var30 = 0.0021664674555402046
									} else {
										var30 = -0.01000275992888347
									}
								} else {
									var30 = 0.006923571557754599
								}
							} else {
								var30 = -0.009402953812368116
							}
						} else {
							var30 = 0.004631776770078133
						}
					} else {
						var30 = -0.010388126407079352
					}
				} else {
					if input[9] > 0.000000000000000000000000000000000010000000180025095 {
						if input[3] > 1.196378827095032 {
							var30 = -0.004058281376575778
						} else {
							if input[3] <= -0.9649200439453124 {
								var30 = 0.003748576399743945
							} else {
								var30 = -0.0004823583440890333
							}
						}
					} else {
						if input[5] <= -0.2590529024600982 {
							if input[1] <= -0.7388107180595397 {
								if input[8] <= -0.3175744414329528 {
									if input[6] <= -0.6831301748752593 {
										var30 = 0.030559669716178246
									} else {
										var30 = 0.00023468315281858322
									}
								} else {
									if input[4] <= -0.07622857764363287 {
										if input[2] <= -0.3161289989948272 {
											var30 = 0.0036856776224252676
										} else {
											var30 = 0.01218007551690028
										}
									} else {
										if input[1] <= -0.9513126611709594 {
											if input[6] > 1.017927169799805 {
												var30 = 0.002433239698663133
											} else {
												var30 = -0.006055175743107342
											}
										} else {
											var30 = 0.006132970213226132
										}
									}
								}
							} else {
								if input[6] > 0.6593904793262483 {
									if input[3] > 1.7875967621803286 {
										var30 = 0.02871056709970747
									} else {
										var30 = -0.006870936603785478
									}
								} else {
									if input[1] <= -0.526308849453926 {
										var30 = -0.007103445890771859
									} else {
										if input[3] > 0.06340909749269487 {
											var30 = 0.0013164290341281955
										} else {
											var30 = -0.0007620769743441338
										}
									}
								}
							}
						} else {
							var30 = -0.001050572604316149
						}
					}
				}
			}
		}
	}
	var var31 float64
	if input[3] > 0.11477816477417947 {
		if input[6] <= -0.09884813800454138 {
			if input[3] > 1.1530957818031313 {
				if input[1] > 0.11119683785364033 {
					if input[6] <= -0.6831301748752593 {
						if input[8] <= -0.2447981163859367 {
							if input[6] <= -0.9752711057662963 {
								if input[1] > 1.1737062931060793 {
									var31 = -0.0013685779332240017
								} else {
									var31 = -0.01467809074738731
								}
							} else {
								if input[1] > 0.7487025260925294 {
									if input[9] > 0.000000000000000000000000000000000010000000180025095 {
										var31 = -0.0009952734898904273
									} else {
										if input[6] <= -0.8052981793880462 {
											var31 = 0.006818868442281054
										} else {
											var31 = 0.025632803954861384
										}
									}
								} else {
									var31 = -0.0034346563581769407
								}
							}
						} else {
							var31 = -0.005250968390028963
						}
					} else {
						if input[8] > 0.9333125650882722 {
							var31 = -0.006862838555466046
						} else {
							if input[1] > 0.5362006425857545 {
								if input[7] > 0.750769078731537 {
									var31 = -0.007163840718567372
								} else {
									var31 = 0.016325093684501427
								}
							} else {
								var31 = 0.003483959559742351
							}
						}
					}
				} else {
					if input[2] > 0.1171194836497307 {
						if input[9] > 0.000000000000000000000000000000000010000000180025095 {
							var31 = -0.006207167665219174
						} else {
							var31 = 0.016026543839708775
						}
					} else {
						var31 = -0.004515698562403794
					}
				}
			} else {
				var31 = 0.00041130463265161965
			}
		} else {
			if input[3] > 1.1393022537231448 {
				var31 = 0.0037992181014326557
			} else {
				if input[0] > 2.8125416040420537 {
					var31 = -0.019018707380848612
				} else {
					var31 = 0.0011732430442225848
				}
			}
		}
	} else {
		if input[2] <= -1.182625889778137 {
			var31 = 0.002794351439975682
		} else {
			if input[3] <= -1.0376926660537718 {
				var31 = -0.0015736402755551753
			} else {
				if input[3] <= -0.9649200439453124 {
					if input[5] > 1.4325346350669863 {
						if input[4] <= -0.9608801007270812 {
							var31 = -0.0013768468267543583
						} else {
							var31 = 0.005139913150475004
						}
					} else {
						var31 = -0.0016159233628457543
					}
				} else {
					if input[2] <= -0.3161289989948272 {
						if input[8] > 1.4841786026954653 {
							var31 = -0.002595568339957859
						} else {
							if input[1] > 0.5362006425857545 {
								var31 = 0.005730116151490994
							} else {
								if input[9] > 0.000000000000000000000000000000000010000000180025095 {
									var31 = -0.0017431846468850016
								} else {
									var31 = 0.0011122387951682832
								}
							}
						}
					} else {
						if input[1] <= -1.163814604282379 {
							var31 = -0.0037087923939731152
						} else {
							if input[1] <= -0.7388107180595397 {
								if input[5] <= -0.10654201358556746 {
									var31 = 0.004123528681758007
								} else {
									var31 = -0.002514479027051347
								}
							} else {
								var31 = -0.0015585122553933696
							}
						}
					}
				}
			}
		}
	}
	var var32 float64
	if input[2] <= -0.5327532440423964 {
		if input[3] <= -1.8752912282943723 {
			var32 = -0.002970714158039879
		} else {
			if input[8] > 1.2420711517333987 {
				var32 = -0.00010875270082916043
			} else {
				if input[1] <= -0.9513126611709594 {
					if input[6] > 0.8107726275920869 {
						if input[2] <= -0.8576895892620086 {
							var32 = 0.005477411108195281
						} else {
							var32 = 0.0011635732422829175
						}
					} else {
						var32 = -0.004653148902526101
					}
				} else {
					if input[6] > 2.8119381666183476 {
						var32 = -0.019832678464637404
					} else {
						if input[1] > 0.000000000000000000000000000000000010000000180025095 {
							if input[2] <= -0.6410653591156005 {
								var32 = 0.005603336551025565
							} else {
								var32 = 0.0015485295902867363
							}
						} else {
							if input[2] <= -0.7493774890899657 {
								var32 = 0.0014326377995637612
							} else {
								if input[1] <= -0.31380696594715113 {
									if input[1] <= -0.7388107180595397 {
										if input[3] > 2.3673994541168217 {
											var32 = 0.02916477126154033
										} else {
											var32 = -0.0005798927816813206
										}
									} else {
										var32 = -0.010383922692367828
									}
								} else {
									if input[3] > 1.9535944461822512 {
										var32 = -0.012980105471899856
									} else {
										var32 = 0.0009530465716789821
									}
								}
							}
						}
					}
				}
			}
